tree
version=v4
num_class=1
num_tree_per_iteration=1
label_index=0
max_feature_idx=152
objective=regression
feature_names=Year Savanna_fires Forest_fires Crop_Residues Rice_Cultivation Drained_organic_soils_(CO2) Pesticides_Manufacturing Food_Transport Forestland Net_Forest_conversion Food_Household_Consumption Food_Retail On-farm_Electricity_Use Manure_left_on_Pasture Fires_in_organic_soils temp_lag1 Savanna_fires_missing Forest_fires_missing Crop_Residues_missing Forestland_missing Net_Forest_conversion_missing Food_Household_Consumption_missing IPPU_missing Manure_applied_to_Soils_missing Manure_Management_missing Fires_in_humid_tropical_forests_missing On-farm_energy_use_missing temp_lag1_missing emission_lag1_missing Year_missing Rice_Cultivation_missing Drained_organic_soils_(CO2)_missing Pesticides_Manufacturing_missing Food_Transport_missing Food_Retail_missing On-farm_Electricity_Use_missing Food_Packaging_missing Agrifood_Systems_Waste_Disposal_missing Food_Processing_missing Fertilizers_Manufacturing_missing Manure_left_on_Pasture_missing Fires_in_organic_soils_missing Rural_population_missing Urban_population_missing Total_Population_-_Male_missing Total_Population_-_Female_missing total_emission_missing Average_Temperature_°C_missing Savanna_fires_missing_missing Forest_fires_missing_missing Crop_Residues_missing_missing Forestland_missing_missing Net_Forest_conversion_missing_missing Food_Household_Consumption_missing_missing IPPU_missing_missing Manure_applied_to_Soils_missing_missing Manure_Management_missing_missing Fires_in_humid_tropical_forests_missing_missing On-farm_energy_use_missing_missing temp_lag1_missing_missing emission_lag1_missing_missing Area_enc Average_Temperature_°C_lag2 Average_Temperature_°C_lag3 total_emission_lag3 Average_Temperature_°C_lag5 temp_roll3 Year_missing_missing Rice_Cultivation_missing_missing Drained_organic_soils_(CO2)_missing_missing Pesticides_Manufacturing_missing_missing Food_Transport_missing_missing Food_Retail_missing_missing On-farm_Electricity_Use_missing_missing Food_Packaging_missing_missing Agrifood_Systems_Waste_Disposal_missing_missing Food_Processing_missing_missing Fertilizers_Manufacturing_missing_missing Manure_left_on_Pasture_missing_missing Fires_in_organic_soils_missing_missing Rural_population_missing_missing Urban_population_missing_missing Total_Population_-_Male_missing_missing Total_Population_-_Female_missing_missing total_emission_missing_missing Average_Temperature_°C_missing_missing Savanna_fires_missing_missing_missing Forest_fires_missing_missing_missing Crop_Residues_missing_missing_missing Forestland_missing_missing_missing Net_Forest_conversion_missing_missing_missing Food_Household_Consumption_missing_missing_missing IPPU_missing_missing_missing Manure_applied_to_Soils_missing_missing_missing Manure_Management_missing_missing_missing Fires_in_humid_tropical_forests_missing_missing_missing On-farm_energy_use_missing_missing_missing temp_lag1_missing_missing_missing emission_lag1_missing_missing_missing Area_enc_missing Average_Temperature_°C_lag1_missing total_emission_lag1_missing Average_Temperature_°C_lag2_missing total_emission_lag2_missing Average_Temperature_°C_lag3_missing total_emission_lag3_missing Average_Temperature_°C_lag5_missing total_emission_lag5_missing temp_roll3_missing log_em_pc_missing Year_missing_missing_missing Rice_Cultivation_missing_missing_missing Drained_organic_soils_(CO2)_missing_missing_missing Pesticides_Manufacturing_missing_missing_missing Food_Transport_missing_missing_missing Food_Retail_missing_missing_missing On-farm_Electricity_Use_missing_missing_missing Food_Packaging_missing_missing_missing Agrifood_Systems_Waste_Disposal_missing_missing_missing Food_Processing_missing_missing_missing Fertilizers_Manufacturing_missing_missing_missing Manure_left_on_Pasture_missing_missing_missing Fires_in_organic_soils_missing_missing_missing Rural_population_missing_missing_missing Urban_population_missing_missing_missing Total_Population_-_Male_missing_missing_missing Total_Population_-_Female_missing_missing_missing total_emission_missing_missing_missing Average_Temperature_°C_missing_missing_missing Savanna_fires_missing_missing_missing_missing Forest_fires_missing_missing_missing_missing Crop_Residues_missing_missing_missing_missing Forestland_missing_missing_missing_missing Net_Forest_conversion_missing_missing_missing_missing Food_Household_Consumption_missing_missing_missing_missing IPPU_missing_missing_missing_missing Manure_applied_to_Soils_missing_missing_missing_missing Manure_Management_missing_missing_missing_missing Fires_in_humid_tropical_forests_missing_missing_missing_missing On-farm_energy_use_missing_missing_missing_missing temp_lag1_missing_missing_missing_missing emission_lag1_missing_missing_missing_missing Area_enc_missing_missing Average_Temperature_°C_lag1_missing_missing total_emission_lag1_missing_missing Average_Temperature_°C_lag2_missing_missing total_emission_lag2_missing_missing Average_Temperature_°C_lag3_missing_missing total_emission_lag3_missing_missing Average_Temperature_°C_lag5_missing_missing total_emission_lag5_missing_missing temp_roll3_missing_missing log_em_pc_missing_missing
feature_infos=[2005:2015] [0:114616.4011] [0:34718.9254] [0.00020000000000000001:33261.009400000003] [0:152668.1134] [0:232118.4694] [0:16459] [0.14899999999999999:64147.018199999999] [-797183.07900000003:171121.076] [0:1605106.0959999999] [0.0016000000000000001:357511.96750000003] [0.0001:108958.4997] [0.00050000000000000001:141904.33360000001] [0.00069999999999999999:90009.281600000002] [0:631416.74970000004] [-0.66833333333333333:3.1429999999999998] none none none none none none none none none none none none none none none none none none none none none none none none none none none none none none none none none none none none none none none none none none none none none -1:0:1:2:3:4:5:6:7:8:10:11:12:14:15:16:17:20:21:22:23:24:26:27:28:29:30:31:32:33:34:35:36:37:38:39:40:41:42:43:44:45:46:47:48:49:50:51:53:54:56:57:58:59:60:61:62:63:64:65:68:70:71:72:73:74:75:76:77:79:80:81:82:83:84:85:86:87:88:89:90:91:92:93:94:95:96:97:98:99:100:101:102:103:104:105:106:108:109:110:112:114:115:116:117:118:121:122:123:124:125:126:128:129:130:131:132:134:135:137:138:139:140:141:142:143:144:146:147:148:149:150:151:154:155:156:158:159:160:161:162:163:164:165:166:167:168:170:172:173:174:175:176:177:178:179:180:181:182:185:186:187:190:191:192:193:194:196:197:198:199:201:202:203:204:205:206:207:209:210:211:213:214:215:216:217:218:220:221:222:223:224:225:226:227:127:133:153:157:9:13:18:25:52:67:78:107:111:113:119:152:169:171:189:200:208:212:219:55:66:69:188:195:145 [-0.66833333333333333:3.1429999999999998] [-0.66833333333333333:3.1429999999999998] [-375376.66670000006:2541904.4191999999] [-0.66833333333333333:3.1429999999999998] [-0.019388888888888872:2.4532499999999997] none none none none none none none none none none none none none none none none none none none none none none none none none none none none none none none none none none none none none none none none none none none none none none none none none none none none none none none none none none none none none none none none none none none none none none none none none none none none none none none none none none none none none none
tree_sizes=2429 2446 2363 2448 2354 2543 2276 2263 2212 1946 2122 2466 2800 2548 2117 1954 2211 2060 2572 2316 1625 1883 1712 2155 2142 1813 1988 2335 2244 1814 2171 2353 2236 1286 2260 1375 1290 1825 2273 941 2257 1735 2457 1910 1121 2338 1309 1295 869 1704 1647 2546 2445 1645 1910 1830 1207 1493 2360 874 2447 1646 2723 1467 2731 705 1222 2396 1932 1388 1946 2385 2304 701 861 1480 2364 2022 1227 1386 2466 1060 870 2459 1643 1769 1568 788 2128 1584 1646 1689 1992 1388 1141 1921 2111 1200 955 2307 1390 2199 790 1237 2315 788 2004 1941 1067 1398 1228 1577 1663 1820 1512 1413 1406 1229 1426 1215 2129 1219 1776 1221 1151 1930 950 1226 1132 1005 1522 1599 1777 1324 953 948 1681 1341 2381 793 1236 1776 1521 1931 1326 1042 961 1587 1976 2301 1384 1466 879 1326 2054 1495 1240

Tree=0
num_leaves=28
num_cat=0
split_feature=66 66 66 66 15 62 66 62 66 62 15 0 15 62 15 62 62 66 62 15 66 15 15 66 15 15 65
split_gain=205.851 46.1993 45.7217 12.0728 9.83644 6.81891 6.82731 6.72015 6.62626 6.56791 5.96185 5.67312 4.96647 4.56492 4.47194 4.44904 3.26026 2.85084 2.70314 2.65762 2.61601 2.34591 1.71819 1.6968 1.52613 1.46339 0.202875
threshold=1.0444305555555558 1.3648055555555556 0.62446388888888893 0.81514539661740448 0.89729166666666671 1.0657916666666669 1.6146527777777779 1.6387500000000002 0.4013194444444444 0.88754166666666678 0.47591666666666671 2013.5000000000002 1.8308333333333333 1.521166666666667 0.86293333333333344 0.82320833333333343 0.46545833333333336 0.89348611111111109 0.70745833333333341 1.6145000000000003 1.1791651749407284 1.3076250000000003 0.50945833333333346 0.28087500000000004 0.3766250000000001 0.54233333333333344 0.28016666666666673
decision_type=2 2 2 2 2 2 2 2 2 2 2 2 2 2 2 2 2 2 2 2 2 2 2 2 2 2 2
left_child=2 4 8 14 13 19 21 12 23 17 -11 -8 -6 20 16 -16 -4 -5 22 -3 -2 -7 -10 26 -25 -20 -1
right_child=1 5 3 9 7 6 11 -9 18 10 -12 -13 -14 -15 15 -17 -18 -19 25 -21 -22 -23 -24 24 -26 -27 -28
leaf_value=0.87193177490059071 1.0223838582498186 1.1022109800440425 0.97797275971626352 0.96620994343236422 0.99061078265995584 1.0386354132130822 1.0384734274567142 0.93239976236484567 0.93941402034817056 1.0068014348835672 0.95162394569722564 1.0926432552077587 0.94175567457820675 0.98554573247093258 0.93739511525910479 0.88763294768591616 0.94743474963292029 0.98570812264316909 0.91803291495655814 1.0553888278400587 1.0666784424943083 1.0099512753452915 0.92222592799702652 0.92148252376540041 0.88958552369101385 0.88835174093804758 0.88600461067240122
leaf_weight=20 40 22 38 148 384 44 58 23 100 21 290 29 22 24 98 22 437 152 46 27 20 81 139 30 30 26 21
leaf_count=20 40 22 38 148 384 44 58 23 100 21 290 29 22 24 98 22 437 152 46 27 20 81 139 30 30 26 21
internal_value=0.966124 1.00854 0.945834 0.955659 0.991112 1.04279 1.03502 0.984985 0.917073 0.965533 0.95535 1.05653 0.987963 1.02241 0.94552 0.928272 0.949878 0.976089 0.924301 1.07641 1.03715 1.02005 0.929418 0.89482 0.905534 0.907315 0.87914
internal_weight=2392 774 1618 1206 513 261 212 429 412 611 311 87 406 84 595 120 475 300 311 49 60 125 239 101 60 72 41
internal_count=2392 774 1618 1206 513 261 212 429 412 611 311 87 406 84 595 120 475 300 311 49 60 125 239 101 60 72 41
is_linear=0
shrinkage=1


Tree=1
num_leaves=27
num_cat=0
split_feature=66 66 66 66 66 62 15 62 62 15 0 62 15 66 15 66 62 15 15 66 15 0 66 62 15 65
split_gain=167.531 45.8841 26.5067 10.8227 7.40107 7.05124 6.47355 7.66687 5.79961 5.74779 5.52979 3.8723 3.81241 3.66004 3.44167 3.24552 2.96859 2.27797 2.21182 1.98263 1.93313 1.8305 1.37441 1.35349 1.27938 0.164329
threshold=1.114916666666667 0.68601388888888903 1.3893750000000002 0.84980555555555559 0.4013194444444444 1.2730833333333336 1.8308333333333333 1.0503333333333333 1.0755000000000001 0.71325000000000016 2013.5000000000002 0.90995833333333354 0.68520833333333331 1.6146527777777779 0.85316666666666674 1.2624166666666667 0.65437500000000004 0.83233333333333348 0.73025000000000018 0.5843194444444445 0.74537500000000012 2008.5000000000002 0.28087500000000004 0.4024166666666667 1.6568750000000001 0.28016666666666673
decision_type=2 2 2 2 2 2 2 2 2 2 2 2 2 2 2 2 2 2 2 2 2 2 2 2 2 2
left_child=1 4 6 11 22 9 7 15 24 -5 21 12 -3 -12 -9 -2 19 -13 -7 -6 -18 -10 25 -24 -4 -1
right_child=2 3 8 5 16 18 -8 14 10 -11 13 17 -14 -15 -16 -17 20 -19 -20 -21 -22 -23 23 -25 -26 -27
leaf_value=-0.084772760868072505 0.043653394487025085 0.0034298760470736658 0.12203670561313629 0.034916808422798672 -0.035592322916469264 0.0047319717332720765 -0.027084150426089765 0.04995348686842542 0.067766645740955436 0.0039939286354553896 0.065827933081558779 -0.025003972442249028 -0.016704830523603099 0.11386756979185959 0.017295746020341694 0.08402021080255509 -0.040465724483237868 -0.062240940779447557 -0.033667876581894234 -0.018917847464035732 -0.070867645144462588 0.043274376584195549 -0.042689020584362587 -0.07358045079137969 0.088103780150413522 -0.07210720713649478
leaf_weight=20 69 132 20 68 161 20 20 38 47 518 35 92 327 29 214 28 128 20 60 128 25 87 37 23 25 21
leaf_count=20 69 132 20 68 161 20 20 38 47 518 35 92 327 29 214 28 128 20 60 128 25 87 37 23 25 21
internal_value=-9.56013e-11 -0.0155179 0.0451338 -0.00488048 -0.0397508 0.00378043 0.0282452 0.031416 0.0707793 0.00758225 0.0634143 -0.0149823 -0.0109145 0.0875959 0.0222203 0.0553057 -0.03417 -0.0316534 -0.0240679 -0.0282071 -0.0454334 0.0518649 -0.0641738 -0.0545307 0.103185 -0.0782855
internal_weight=2392 1780 612 1237 543 666 369 349 243 586 198 571 459 64 252 97 442 112 80 289 153 134 101 60 45 41
internal_count=2392 1780 612 1237 543 666 369 349 243 586 198 571 459 64 252 97 442 112 80 289 153 134 101 60 45 41
is_linear=0
shrinkage=0.1


Tree=2
num_leaves=26
num_cat=0
split_feature=66 66 66 15 66 66 62 62 62 66 15 15 15 62 62 62 15 62 66 66 0 15 66 15 66
split_gain=137.124 30.2363 29.9611 7.30206 5.98347 5.6167 5.38283 5.22467 4.94226 4.76886 4.50297 4.4604 4.2174 3.85323 3.75903 2.99661 2.32456 2.1643 2.131 1.81454 1.6028 1.53912 1.28019 1.1853 1.43294
threshold=1.0444305555555558 0.67629166666666662 1.3893750000000002 0.89729166666666671 0.81514539661740448 0.4013194444444444 1.6568750000000001 0.88754166666666678 1.3839166666666667 1.8065138888888892 1.2671666666666668 0.46495833333333342 1.9046666666666667 1.521166666666667 1.1293333333333335 0.53475000000000017 0.90770833333333345 0.68454166666666671 1.1791651749407284 1.6146527777777779 2013.5000000000002 0.54233333333333344 0.5843194444444445 0.52904166666666674 0.28087500000000004
decision_type=2 2 2 2 2 2 2 2 2 2 2 2 2 2 2 2 2 2 2 2 2 2 2 2 2
left_child=1 5 3 13 14 23 12 16 10 20 -4 -9 -5 18 15 -3 -6 22 -2 -12 -10 -19 -7 24 -1
right_child=2 4 8 6 7 17 -8 11 9 -11 19 -13 -14 -15 -16 -17 -18 21 -20 -21 -22 -23 -24 -25 -26
leaf_value=-0.067292704308912266 0.047996346824802465 0.0039600946817778477 0.12292267978191376 0.020794735812601505 0.018133843878237861 -0.032365692132397698 -0.033299782424278203 0.035970171242952348 0.034961542087020701 0.089226154362161969 0.05951453122225675 -0.012850685040582503 -0.026251515969634057 0.015564204537524627 -0.055834246900948618 -0.017172630628361902 0.00049690159297904803 -0.032675564032631797 0.087334741581053976 0.090786941855081502 0.061395437130704528 -0.055481677179066637 -0.018924515376691056 -0.077706133412278222 -0.039959151145409461
leaf_weight=34 40 81 20 403 141 171 21 20 81 27 55 291 20 26 22 391 159 67 21 28 32 53 121 23 44
leaf_count=34 40 81 20 403 141 171 21 20 81 27 55 291 20 26 22 391 159 67 21 28 32 53 121 23 44
internal_value=-7.74421e-11 -0.0165599 0.0346175 0.0213079 -0.00724557 -0.036623 0.016117 -0.000628914 0.0637014 0.0514689 0.080328 -0.00971108 0.0185703 0.0477995 -0.0154293 -0.013546 0.00878626 -0.0314422 0.0615391 0.0700643 0.0424472 -0.0427483 -0.0267959 -0.0577564 -0.0518738
internal_weight=2392 1618 774 531 1105 513 444 611 243 140 103 311 423 87 494 472 300 412 61 83 113 120 292 101 78
internal_count=2392 1618 774 531 1105 513 444 611 243 140 103 311 423 87 494 472 300 412 61 83 113 120 292 101 78
is_linear=0
shrinkage=0.1


Tree=3
num_leaves=27
num_cat=0
split_feature=66 66 66 66 62 62 66 15 15 0 62 15 15 15 66 15 62 15 0 62 65 66 15 15 65 65
split_gain=112.008 30.5563 16.1476 8.51562 5.92468 5.6714 5.1134 4.9189 4.33589 4.33259 4.27548 4.88211 3.60419 3.16787 3.04557 2.8464 2.69229 2.54535 2.25175 2.23762 2.18858 1.92984 1.81026 1.57484 0.487909 0.129369
threshold=1.1278128166471315 0.68601388888888903 1.4325138888888891 0.92022222222222239 0.9720416666666668 0.86370833333333341 0.51328611111111122 1.2502916666666668 1.1165 2013.5000000000002 0.82320833333333343 1.066791666666667 1.1591666666666669 0.66575378787878792 1.734791666666667 0.89900305124666691 1.8880416666666668 0.40179166666666671 2008.5000000000002 0.77050000000000007 0.80809500785049937 0.28087500000000004 0.26133333333333336 1.3262916666666669 0.66741666666666677 0.28016666666666673
decision_type=2 2 2 2 2 2 2 2 2 2 2 2 2 2 2 2 2 2 2 2 2 2 2 2 2 2
left_child=1 6 5 10 15 23 21 16 -4 18 13 -12 -6 -3 -11 -5 -7 24 -10 -19 -9 25 -23 -2 -8 -1
right_child=2 3 8 4 12 7 17 20 9 14 11 -13 -14 -15 -16 -17 -18 19 -20 -21 -22 22 -24 -25 -26 -27
leaf_value=-0.069305878281593333 0.078329164683818828 0.012194239760896093 0.10015684453149637 0.03785963880696467 0.0015030251987765361 0.035931654014539988 -0.012238650631021572 -0.016302795948520785 0.060193552441067166 0.059434295267514564 -0.015906457599077644 -0.066949944347143173 -0.030946324135930764 -0.0082007732379982667 0.10337820400794347 0.011975028035058958 -0.0029182656761258842 -0.023855292249163943 0.031357329156633244 -0.047836508173891845 0.013528519227050104 -0.023560887721239352 -0.045815832439860579 0.042558214883320039 0.0078233463986014783 -0.058068040793850306
leaf_weight=20 20 95 24 56 185 165 27 31 45 46 297 20 42 384 24 176 20 226 68 47 119 51 129 32 22 21
leaf_count=20 20 95 24 56 185 165 27 31 45 46 297 20 42 384 24 176 20 226 68 47 119 51 129 32 22 21
internal_value=-1.13689e-10 -0.0124378 0.0376484 -0.00386279 0.00698488 0.02559 -0.0322566 0.0208205 0.0601924 0.0549512 -0.0101179 -0.0191269 -0.00450082 -0.00415583 0.0745008 0.018223 0.0317317 -0.0242172 0.0428408 -0.0279839 0.00736338 -0.0439701 -0.0395103 0.0563163 -0.00323122 -0.0635499
internal_weight=2392 1798 594 1255 459 387 543 335 207 183 796 317 227 479 70 232 185 322 113 273 150 221 180 52 49 41
internal_count=2392 1798 594 1255 459 387 543 335 207 183 796 317 227 479 70 232 185 322 113 273 150 221 180 52 49 41
is_linear=0
shrinkage=0.1


Tree=4
num_leaves=26
num_cat=0
split_feature=66 66 66 62 15 62 66 15 15 15 62 62 62 0 66 15 5 62 65 15 62 62 66 66 15
split_gain=91.1402 27.4209 15.4694 5.31099 5.20966 5.83426 4.77084 4.37919 3.91994 3.70299 3.73124 3.4801 3.14076 2.83627 2.80848 2.04766 1.48122 1.47662 1.44911 1.14301 1.14299 0.916557 0.876602 0.587071 0.382604
threshold=0.94222222222222229 1.3474583333333334 0.62446388888888893 1.1728333333333334 0.62420833333333337 1.4881666666666671 1.6146527777777779 1.1095416666666669 1.2865833333333336 0.35595833333333332 0.55125000000000013 0.73425000000000018 0.77979166666666677 2012.5000000000002 0.37300000000000005 0.76845833333333358 263.74620000000004 0.42291666666666672 1.1335416666666667 1.2865833333333336 0.36762500000000004 0.54670833333333346 1.1399305555555557 0.23112500000000005 0.30335000000000006
decision_type=2 2 2 2 2 2 2 2 2 2 2 2 2 2 2 2 2 2 2 2 2 2 2 2 2
left_child=2 4 14 8 18 12 19 9 -3 -4 -11 21 -6 -8 23 17 -10 -16 -2 -5 -17 -9 -7 -1 -25
right_child=1 3 7 6 5 22 13 11 16 10 -12 -13 -14 -15 15 20 -18 -19 -20 -21 -22 -23 -24 24 -26
leaf_value=-0.060187817917716116 0.025984340950491881 0.10898868186133248 0.028135006475661486 0.041961577407470564 0.030441725505364087 -0.03690630616620183 0.045772336303906619 -0.0043126975910531152 0.040216436831280594 0.006702030654317544 -0.011528540741206664 -0.061339166153360297 0.010385432313764903 0.084250470399856572 -0.013307354834938601 -0.032736605228412721 0.072931886248050193 -0.02975848073795162 0.061617092005908494 0.021338189883121791 -0.065730037717592157 -0.030885022372007371 -0.010921296875017722 -0.031958745050942532 -0.049814737439155578
leaf_weight=31 21 21 28 41 92 20 53 27 25 132 751 27 516 30 73 21 31 216 25 78 21 25 37 20 30
leaf_count=31 21 21 28 41 92 20 53 27 25 132 751 27 516 30 73 21 31 216 25 78 21 25 37 20 30
internal_value=-2.76578e-11 0.023229 -0.0164028 0.0497968 0.0128037 0.0105523 0.0412785 -0.00962648 0.0721437 -0.00766793 -0.00880325 -0.0322117 0.0134203 0.0596801 -0.0326857 -0.0286014 0.0583268 -0.025603 0.04535 0.0284437 -0.0492333 -0.0170879 -0.0200388 -0.0493758 -0.0426723
internal_weight=2392 990 1402 279 711 665 202 990 77 911 883 79 608 83 412 331 56 289 46 119 42 52 57 81 50
internal_count=2392 990 1402 279 711 665 202 990 77 911 883 79 608 83 412 331 56 289 46 119 42 52 57 81 50
is_linear=0
shrinkage=0.1


Tree=5
num_leaves=28
num_cat=0
split_feature=66 66 66 66 15 62 15 62 62 66 15 15 15 15 15 62 62 62 62 0 66 5 66 15 62 66 66
split_gain=75.4536 17.8146 14.9782 5.69317 4.74563 4.31624 3.90399 3.49625 3.26687 3.35954 3.24157 3.02473 2.94521 2.67561 2.58768 2.36117 2.12166 1.90213 1.5971 1.48695 1.30803 1.2558 1.21055 1.4215 1.092 0.950446 0.0997787
threshold=1.0611250000000003 0.77018055555555553 1.3648055555555556 0.51328611111111122 0.90301841030671581 0.79220833333333351 1.2028333333333334 1.2426666666666668 1.2730833333333336 1.8065138888888892 1.7897083333333337 0.79704166666666676 1.4660000000000004 0.98720833333333335 0.46495833333333342 1.368541666666667 0.55125000000000013 0.76795833333333341 1.6568750000000001 2013.5000000000002 0.87309069337179246 263.74620000000004 0.28087500000000004 0.34833333333333333 0.54670833333333346 1.1326666666666669 0.20058333333333336
decision_type=2 2 2 2 2 2 2 2 2 2 2 2 2 2 2 2 2 2 2 2 2 2 2 2 2 2 2
left_child=1 3 4 22 15 13 14 10 12 19 -6 16 -4 20 -7 25 -5 -13 -9 -10 -3 -14 26 -24 -15 -2 -1
right_child=2 5 8 11 7 6 -8 18 9 -11 -12 17 21 24 -16 -17 -18 -19 -20 -21 -22 -23 23 -25 -26 -27 -28
leaf_value=-0.056417638347262433 0.040443286429280828 0.0090358524360865562 0.089163510556574233 -0.0013016863246783951 0.02189732285045512 0.027587961591780188 -0.038529222976002434 0.0033051567144445648 0.025019042250598866 0.068466250121127822 -0.019095106316464289 -0.025227282038152526 0.033937645863209458 0.0078486959487366094 -0.0060237223910957101 0.019325202183265774 -0.01721322404224785 -0.057850700900668198 -0.027199640218168498 0.047045553953979503 0.02705108473609601 0.063154044218601726 -0.021927768977144987 -0.039988710812099704 -0.012055837952449645 0.070250333696603773 -0.046548340246081357
leaf_weight=21 23 95 27 111 237 24 36 121 101 30 21 120 28 49 502 35 342 21 20 44 70 31 74 106 63 20 20
leaf_count=21 23 95 27 111 237 24 36 121 101 30 21 120 28 49 502 35 342 21 20 44 70 31 74 106 63 20 20
internal_value=-1.26675e-11 -0.0118637 0.0265888 -0.0223936 0.0160507 -0.00163504 -0.00667055 0.0116406 0.0458481 0.0380052 0.0185607 -0.0172955 0.0618075 0.00858141 -0.00449011 0.0386101 -0.0133144 -0.0300861 -0.00102176 0.0317029 0.0166787 0.0492886 -0.0360959 -0.0325637 -0.0033476 0.054307 -0.0516033
internal_weight=2392 1654 738 815 477 839 562 399 261 175 258 594 86 277 526 78 453 141 141 145 165 59 221 180 112 43 41
internal_count=2392 1654 738 815 477 839 562 399 261 175 258 594 86 277 526 78 453 141 141 145 165 59 221 180 112 43 41
is_linear=0
shrinkage=0.1


Tree=6
num_leaves=25
num_cat=0
split_feature=66 66 66 66 62 66 15 62 15 15 15 0 15 66 15 62 15 0 66 62 62 66 15 15
split_gain=62.1764 17.7024 8.49221 4.7748 4.10926 3.96766 3.84963 5.27355 3.31908 2.95209 2.89335 2.7673 2.37109 1.95809 1.92761 1.76453 1.66691 1.6497 1.5613 1.5194 1.39754 1.35248 1.1018 0.573259
threshold=1.1278128166471315 0.77198611111111115 1.4325138888888891 0.55583333333333329 1.1489583333333335 0.94222222222222229 1.9046666666666667 1.0503333333333333 0.76145833333333346 1.1095416666666669 1.1165 2013.5000000000002 0.88383333333333347 1.734791666666667 1.2325833333333336 0.43241666666666673 0.56987511090167209 2008.5000000000002 1.2624166666666667 0.68454166666666671 0.69208333333333338 0.28087500000000004 1.2028333333333334 0.41029166666666678
decision_type=2 2 2 2 2 2 2 2 2 2 2 2 2 2 2 2 2 2 2 2 2 2 2 2
left_child=1 3 6 20 5 8 7 18 -3 -7 -4 17 15 -13 -9 -5 -6 -12 -2 -14 21 -1 -18 -22
right_child=2 4 10 12 16 9 -8 14 -10 -11 11 13 19 -15 -16 -17 22 -19 -20 -21 23 -23 -24 -25
leaf_value=-0.045013522709670822 0.032424475419950687 0.0097755569170973038 0.077045312430709612 0.0065416162887982944 0.011413257546900285 0.020395113635224817 -0.022332193862114633 0.022185543548058427 -0.0074724288928891495 -0.00071311096887095513 0.045291715405053563 0.043660681791927503 -0.022103485156866637 0.078896251817544311 0.0052703737789257009 -0.014064931232038192 -0.014937077583805337 0.020609711472848982 0.059328615753089675 -0.053198352862488141 -0.03666487715571471 -0.024356159709969349 -0.039346118000420656 -0.059813808053731925
leaf_weight=38 59 159 24 46 21 174 21 152 374 107 45 46 55 24 121 430 116 68 34 22 23 191 22 20
leaf_count=38 59 159 24 46 21 174 21 152 374 107 45 46 55 24 121 430 116 68 34 22 23 191 22 20
internal_value=-5.6952e-11 -0.00926682 0.0280501 -0.0200426 -0.000130077 0.0027421 0.0193053 0.0216944 -0.00232716 0.0123575 0.0443989 0.0401174 -0.0147072 0.0557414 0.0146883 -0.0120735 -0.0148342 0.0304388 0.0422604 -0.0309877 -0.0308901 -0.027784 -0.0188284 -0.0474318
internal_weight=2392 1798 594 825 973 814 387 366 533 281 207 183 553 70 273 476 159 113 93 77 272 229 138 43
internal_count=2392 1798 594 825 973 814 387 366 533 281 207 183 553 70 273 476 159 113 93 77 272 229 138 43
is_linear=0
shrinkage=0.1


Tree=7
num_leaves=25
num_cat=0
split_feature=66 66 66 15 62 62 15 66 66 62 15 62 15 62 0 15 62 66 15 64 15 62 66 66
split_gain=50.3629 14.5083 7.11134 4.0544 5.2608 3.99224 3.6824 3.81491 2.50575 2.24001 2.50416 2.02004 1.75324 1.73079 1.694 1.65297 1.08672 1.06617 1.34825 0.756741 0.740477 0.713515 0.668599 0.638699
threshold=1.1278128166471315 0.69809722222222237 1.5293333333333334 2.0102500000000005 1.0503333333333333 0.53475000000000017 0.38948484848484849 0.89348611111111109 0.44106944444444446 1.5097083333333334 1.6814583333333335 1.6977500000000003 0.73650000000000004 0.41087500000000005 2013.5000000000002 1.0507500000000001 0.56905833333333344 0.87309069337179246 1.1165 7343.77365635363 0.85591666666666677 0.68454166666666671 0.28087500000000004 1.734791666666667
decision_type=2 2 2 2 2 2 2 2 2 2 2 2 2 2 2 2 2 2 2 2 2 2 2 2
left_child=1 8 3 4 15 17 -7 -8 16 10 -4 -6 13 -10 19 -2 22 20 -19 -11 -3 -14 -1 -12
right_child=2 5 9 -5 11 6 7 -9 12 14 23 -13 21 -15 -16 -17 -18 18 -20 -21 -22 -23 -24 -25
leaf_value=-0.040512170211264964 0.063984449142995101 0.020471550610944116 0.08768692761659623 -0.024957010140642527 0.017847840269071071 0.028833536975875953 -0.010640530241526565 0.0013140974698969928 0.0016941524106501181 0.038551269601220677 0.034502579852938656 -0.0052121331025608182 -0.024872404111969011 -0.017643969190388294 0.058210783973336226 0.03376611071529196 -0.055078317187726503 0.046740806624293335 0.011585480285187563 0.015201121486690162 6.7874507816589392e-05 -0.04481715013583501 -0.024155642520891477 0.05815891880719435
leaf_weight=38 23 29 20 20 278 33 574 499 55 23 25 44 71 292 20 85 20 20 24 35 46 24 73 21
leaf_count=38 23 29 20 20 278 33 574 499 55 23 25 44 71 292 20 85 20 20 24 35 46 24 73 21
internal_value=-1.08993e-11 -0.00834013 0.0252451 0.0190555 0.0211026 -0.00219654 -0.0040691 -0.00508102 -0.0214744 0.0445873 0.0581461 0.0146968 -0.0178742 -0.0145788 0.0331145 0.0402015 -0.0336213 0.0152073 0.0275652 0.0244607 0.0079573 -0.0299111 -0.0297552 0.0453022
internal_weight=2392 1798 594 450 430 1225 1106 1073 573 144 66 322 442 347 78 108 131 119 44 58 75 95 111 46
internal_count=2392 1798 594 450 430 1225 1106 1073 573 144 66 322 442 347 78 108 131 119 44 58 75 95 111 46
is_linear=0
shrinkage=0.1


Tree=8
num_leaves=24
num_cat=0
split_feature=66 66 66 62 66 62 15 15 62 15 66 15 15 15 15 66 62 62 62 62 0 62 0
split_gain=41.2218 9.48694 9.41632 4.67253 3.59233 3.17239 3.07951 2.92041 3.03309 2.95048 2.42437 2.54284 2.30625 1.81871 1.41971 1.30984 1.21565 1.20424 1.10483 0.993126 0.984316 0.455091 0.317095
threshold=1.0444305555555558 0.62446388888888893 1.324513888888889 1.3076250000000003 0.8399861111111111 0.83434830722545916 0.94737500000000019 0.83233333333333348 1.1634583333333335 1.5420833333333335 1.734791666666667 1.2865833333333336 0.60670833333333352 0.81698854464077619 0.66575378787878792 0.37300000000000005 1.475041666666667 1.2912500000000002 0.42291666666666672 0.56208333333333338 2013.5000000000002 0.41087500000000005 2008.5000000000002
decision_type=2 2 2 2 2 2 2 2 2 2 2 2 2 2 2 2 2 2 2 2 2 2 2
left_child=1 14 7 4 12 -4 -6 17 9 -9 11 -7 -3 -5 15 21 -10 -2 -17 22 -12 -1 -16
right_child=2 3 5 13 6 10 -8 8 16 -11 20 -13 -14 -15 19 18 -18 -19 -20 -21 -22 -23 -24
leaf_value=-0.026195012434170797 0.048118589103221893 0.0022945956973772909 0.065351299555213363 -0.016563008251112132 0.0098836993196483071 0.041007647437272948 -0.0062800672527121406 0.019291715494153611 0.0018946205537739029 -0.012157546915113927 0.036677057928694738 0.017997523889835641 -0.011379094009391348 -0.058181570967038479 -0.037905031777918347 -0.0035835119570899556 -0.017732716926441686 0.017922863762526373 -0.019374295488414101 -0.052613279933021187 0.064378733738608987 -0.043945024274289611 -0.022663963739868516
leaf_weight=52 25 162 27 21 283 69 202 202 137 35 29 158 517 21 20 57 41 28 199 21 23 20 43
leaf_count=52 25 162 27 21 283 69 202 202 137 35 29 158 517 21 20 57 41 28 199 21 23 20 43
internal_value=1.0263e-12 -0.00907955 0.0189802 -0.00460397 -0.00342161 0.0326208 0.00315157 0.0100614 0.0072384 0.0146473 0.0294533 0.0249918 -0.00811674 -0.0373723 -0.0221804 -0.0192097 -0.00262628 0.0321661 -0.0158584 -0.0337801 0.0489297 -0.0311256 -0.0275024
internal_weight=2392 1618 774 1206 1164 306 485 468 415 237 279 227 679 42 412 328 178 53 256 84 52 72 63
internal_count=2392 1618 774 1206 1164 306 485 468 415 237 279 227 679 42 412 328 178 53 256 84 52 72 63
is_linear=0
shrinkage=0.1


Tree=9
num_leaves=21
num_cat=0
split_feature=66 66 62 66 62 15 15 66 15 62 15 62 62 15 15 62 66 15 66 15
split_gain=34.1899 11.7335 4.01871 3.88169 3.78563 4.02929 3.69731 3.13169 3.08696 2.93388 2.18924 1.69455 1.43872 1.24649 1.21113 1.14167 1.0466 0.895285 1.18429 0.569731
threshold=1.2021805555555558 0.79625842626927301 0.86591666666666678 1.572888888888889 0.64895833333333341 0.46495833333333342 1.9046666666666667 0.57134722222222234 1.2115833333333337 1.3839166666666667 1.0301666666666669 0.63633333333333342 1.8565416666666668 0.36495833333333333 1.580125 0.59594796893507163 0.30281944444444447 0.89729166666666671 0.99937500000000001 1.6145000000000003
decision_type=2 2 2 2 2 2 2 2 2 2 2 2 2 2 2 2 2 2 2 2
left_child=1 7 19 6 17 -6 9 13 -7 -4 11 -9 14 16 -5 -15 -1 -3 -19 -2
right_child=2 4 3 12 5 8 -8 10 -10 -11 -12 -13 -14 15 -16 -17 -18 18 -20 -21
leaf_value=-0.028887030158780126 0.061261517286300665 0.031127369557233421 0.027326409178667341 0.065843801200389865 0.034465900523918534 0.00019797510699898904 -0.026466087596490981 -0.0018063528734362788 -0.017242945472204712 0.0073779252605686955 -0.033982391640408123 -0.012967600917367829 0.020216745188725849 -0.023612016522664044 0.037107607823881235 -0.042847065925598143 -0.0090623415509510901 0.0052188427766252845 0.028966453677664202 0.040118673128577385
leaf_weight=38 25 34 157 20 31 725 20 225 118 139 36 344 35 135 55 40 89 70 30 26
leaf_count=38 25 34 157 20 31 725 20 225 118 139 36 344 35 135 55 40 89 70 30 26
internal_value=-3.3571e-11 -0.00596682 0.0239548 0.020779 0.00145828 -0.000941296 0.015147 -0.0142188 -0.00224334 0.0179587 -0.0100672 -0.0085541 0.036958 -0.0225356 0.0447706 -0.0280086 -0.0149941 0.0171093 0.0123431 0.0504828
internal_weight=2392 1915 477 426 1008 874 316 907 843 296 605 569 110 302 75 175 127 134 100 51
internal_count=2392 1915 477 426 1008 874 316 907 843 296 605 569 110 302 75 175 127 134 100 51
is_linear=0
shrinkage=0.1


Tree=10
num_leaves=23
num_cat=0
split_feature=66 66 66 15 62 62 15 62 15 15 62 66 62 62 66 62 15 66 66 0 66 15
split_gain=28.5077 8.92231 4.68583 3.49423 3.83807 3.4216 3.13402 3.12978 2.59615 2.53282 2.43374 2.34674 1.45711 1.21815 1.05398 1.02998 1.15431 1.10995 0.993651 0.901406 0.587099 0.32226
threshold=0.93726948185516601 1.2624166666666667 0.59893055555555563 0.64495833333333341 1.0790416666666669 1.2426666666666668 1.5420833333333335 1.209916666666667 1.3379166666666671 0.32850000000000001 0.5412083333333334 1.676236111111111 1.5590416666666671 1.6977500000000003 1.4831666666666667 0.79491666666666683 0.3766250000000001 0.44106944444444446 0.4013194444444444 2009.5000000000002 1.0526805555555556 1.0810833333333336
decision_type=2 2 2 2 2 2 2 2 2 2 2 2 2 2 2 2 2 2 2 2 2 2
left_child=2 3 15 20 6 9 -5 8 21 -4 -11 13 -6 -9 -10 16 17 -1 -18 -13 -2 -3
right_child=1 7 5 4 12 -7 -8 11 14 10 -12 19 -14 -15 -16 -17 18 -19 -20 -21 -22 -23
leaf_value=-0.018219906554764343 0.020906824396834486 0.066899775749161131 0.030290696863085033 0.013231340271196641 -0.0034491443971861515 -0.039781495973724747 -0.019649273203685882 0.017843794647125981 0.017571365561811849 0.0055453182131276228 -0.007866419017240894 0.023341628112669651 -0.027023643022403121 5.1466406931957374e-05 0.039656338561326269 -0.037332628307671388 -0.036712594234790556 0.00084795486796998749 -0.018900351700996805 0.048066078772147497 0.044282761520960112 0.049163180440664291
leaf_weight=72 21 21 20 308 208 29 32 148 47 162 821 29 30 52 40 29 39 53 159 30 22 20
leaf_count=72 21 21 20 308 208 29 32 148 47 162 821 29 30 52 40 29 39 53 159 30 22 20
internal_value=-1.03652e-11 0.012792 -0.00931671 0.00536491 0.00331894 -0.00591845 0.0101367 0.0247099 0.0375021 -0.00493936 -0.00565614 0.0183878 -0.00642072 0.0132178 0.0277254 -0.0192798 -0.0176589 -0.0101351 -0.0224088 0.0359134 0.0328666 0.0582478
internal_weight=2392 1008 1384 621 578 1032 340 387 128 1003 983 259 238 200 87 352 323 125 198 59 43 41
internal_count=2392 1008 1384 621 578 1032 340 387 128 1003 983 259 238 200 87 352 323 125 198 59 43 41
is_linear=0
shrinkage=0.1


Tree=11
num_leaves=27
num_cat=0
split_feature=66 66 66 62 15 15 15 66 62 15 62 15 66 15 15 66 62 62 66 15 62 62 62 66 66 66
split_gain=23.2799 6.13658 4.43314 3.84541 2.60752 2.393 2.19423 2.16897 1.98437 2.22446 1.7822 1.60578 1.65981 1.57844 1.55306 1.39778 1.39404 1.12443 1.12275 0.754547 0.693129 0.610756 0.565725 0.47999 0.291246 0.186091
threshold=1.0835000000000001 0.72198679244406716 1.3893750000000002 0.98687500000000028 0.90301841030671581 1.0860833333333335 0.68520833333333331 0.86904166666666671 0.66979166666666679 1.6814583333333335 1.4020000000000004 0.73650000000000004 0.51328611111111122 0.38948484848484849 1.2671666666666668 1.846513888888889 1.2912500000000002 0.43241666666666673 0.82920216570244298 1.3766666666666667 1.1803333333333337 0.5412083333333334 0.42291666666666672 1.5137083333333337 0.64886111111111122 0.59221388888888893
decision_type=2 2 2 2 2 2 2 2 2 2 2 2 2 2 2 2 2 2 2 2 2 2 2 2 2 2
left_child=1 11 4 6 16 13 18 -8 -6 -10 14 12 22 -5 -4 19 -2 -14 -3 -12 -7 25 -1 -16 -23 -13
right_child=2 3 10 5 8 20 7 -9 9 -11 15 21 17 -15 23 -17 -18 -19 -20 -21 -22 24 -24 -25 -26 -27
leaf_value=-0.013463032523327687 0.043133755845408288 0.00804849021666822 0.060313721072106134 0.019295073919929566 0.031924261166048899 -0.021507005533203484 -0.005917655792147267 0.0057465235792772207 0.0063167706718156823 -0.026524115861816841 0.02475790439909974 -0.022679782074743082 0.0077866735095581553 -0.010036125920135067 0.02117339135406332 0.042379128400768552 0.014723601304472256 -0.0094307562453375959 0.028612698121248066 0.0079724842639849851 -0.046713513284921654 -0.040513103658502754 -0.024236783701538422 0.036254718285493384 -0.026055288550100832 -0.012292208408882075
leaf_weight=99 31 94 21 20 28 24 334 305 330 22 43 35 44 222 36 21 39 275 37 71 20 22 96 51 38 34
leaf_count=99 31 94 21 20 28 24 334 305 330 22 43 35 44 222 36 21 39 275 37 71 20 22 96 51 38 34
internal_value=4.54443e-13 -0.00630057 0.0154469 -0.00161092 0.00956944 -0.0115124 0.00206678 -0.000350246 0.00630232 0.00426422 0.0263309 -0.0140024 -0.0114989 -0.00761206 0.0359057 0.0186711 0.0273052 -0.00705594 0.0138567 0.0143038 -0.0329645 -0.0239776 -0.018767 0.0300142 -0.0313565 -0.0175613
internal_weight=2392 1699 693 1056 450 286 770 639 380 352 243 643 514 242 108 135 70 319 131 114 44 129 195 87 60 69
internal_count=2392 1699 693 1056 450 286 770 639 380 352 243 643 514 242 108 135 70 319 131 114 44 129 195 87 60 69
is_linear=0
shrinkage=0.1


Tree=12
num_leaves=31
num_cat=0
split_feature=66 66 66 62 15 15 62 62 15 15 0 62 15 66 15 15 15 66 15 66 5 62 66 62 65 62 66 66 62 62
split_gain=19.4101 5.53271 3.36515 3.17313 3.28269 2.54457 2.32827 2.03068 1.91288 1.8998 1.83747 1.71337 1.67417 1.47585 1.31705 1.25333 1.04732 0.84031 0.860179 0.728884 0.720836 0.719238 0.698325 0.60655 0.532481 0.309445 0.292246 0.280074 0.236822 0.138995
threshold=0.95638888888888896 1.2624166666666667 0.64886111111111122 0.82320833333333343 1.1293333333333335 1.1240833333333338 1.209916666666667 0.94287500000000013 0.45783333333333337 1.3379166666666671 2013.5000000000002 1.2426666666666668 0.61807472155983145 0.75079166666666686 0.3766250000000001 1.5420833333333335 0.66575378787878792 0.37300000000000005 0.18299999999999997 1.6146527777777779 3.7363500000000003 0.45783333333333337 1.7065555555555558 0.73025000000000018 0.76304166666666673 0.4024166666666667 0.48515277777777793 0.5843194444444445 1.0345833333333336 1.4020000000000004
decision_type=2 2 2 2 2 2 2 2 2 2 2 2 2 2 2 2 2 2 2 2 2 2 2 2 2 2 2 2 2 2
left_child=2 5 16 12 14 7 9 23 -9 28 19 15 24 -14 -5 -7 17 25 -19 -8 -11 26 -12 -2 -4 -1 -18 -23 -3 -13
right_child=1 6 3 4 -6 11 10 8 -10 20 22 29 13 -15 -16 -17 21 18 -20 -21 -22 27 -24 -25 -26 -27 -28 -29 -30 -31
leaf_value=-0.017343217934317447 0.039049878381192685 0.056845214366912845 0.0055792459319821902 0.015510241101895059 -0.05039633750915528 0.0046903193398507058 0.0059706203632547685 0.034619158262475615 0.0029853116217951462 0.012113289315150017 0.022399675198054563 -0.015445806472920454 -0.0091623985654201972 0.0023304670892350171 -0.010253110600072737 -0.01637333418954821 -0.025313206070235801 0.010026284945862635 -0.011013979365682014 0.019767105365874914 0.030594973609435794 -0.041811832562088973 0.044640335850417615 0.019170832173955262 0.021136779298434372 -0.031766465465937345 -0.010391293024544472 -0.025788893798987075 0.041640496253967291 -0.026534408885054289
leaf_weight=51 20 20 44 21 20 167 138 21 213 36 48 26 170 326 360 34 21 21 260 53 51 20 20 66 44 21 35 24 21 20
leaf_count=51 20 20 44 21 20 167 138 21 213 36 48 26 170 326 360 34 21 21 260 53 51 20 20 66 44 21 35 24 21 20
internal_value=2.56849e-12 0.0110596 -0.00733715 -0.00405655 -0.0109061 0.004768 0.0202774 0.0106536 0.00582425 0.0313108 0.0148247 -0.00285704 0.000646626 -0.00160862 -0.00883308 0.00112731 -0.0144705 -0.0119113 -0.00944158 0.00979896 0.0229474 -0.0235044 0.028941 0.0237939 0.013358 -0.02155 -0.015987 -0.033072 0.0490574 -0.0202669
internal_weight=2392 954 1438 985 401 567 387 320 234 128 259 247 584 496 381 201 453 353 281 191 87 100 68 86 88 72 56 44 41 46
internal_count=2392 954 1438 985 401 567 387 320 234 128 259 247 584 496 381 201 453 353 281 191 87 100 68 86 88 72 56 44 41 46
is_linear=0
shrinkage=0.1


Tree=13
num_leaves=28
num_cat=0
split_feature=66 66 66 15 62 62 15 62 15 62 66 62 66 15 62 66 15 0 15 15 15 62 63 63 62 62 66
split_gain=15.9772 3.77878 3.24294 2.99421 2.6605 2.1329 2.427 1.65123 1.71719 1.54352 1.47446 1.25155 1.19987 1.00244 0.936152 1.0398 0.875155 0.844473 0.777133 0.726415 0.717216 0.640702 0.60771 0.594815 0.535089 0.514129 0.489045
threshold=1.0070126262626264 1.324513888888889 0.69809722222222237 1.076041666666667 0.73025000000000018 1.3839166666666667 0.97604166666666681 1.368541666666667 1.3944583333333338 0.54670833333333346 0.78469444444444447 0.65437500000000004 1.676236111111111 0.41029166666666678 0.66979166666666679 0.28087500000000004 0.67283333333333351 2012.5000000000002 0.52904166666666674 1.1470416666666667 0.3766250000000001 0.99862500000000021 1.1990833333333335 0.68000000000000005 0.91620833333333351 1.6834166666666668 0.59221388888888893
decision_type=2 2 2 2 2 2 2 2 2 2 2 2 2 2 2 2 2 2 2 2 2 2 2 2 2 2 2
left_child=2 5 14 4 10 6 24 8 -3 -5 -4 -8 19 -6 15 -1 -7 -14 23 -9 -17 -11 -10 -16 -2 -18 -20
right_child=1 7 3 9 13 16 11 12 22 21 -12 -13 17 -15 18 20 25 -19 26 -21 -22 -23 -24 -25 -26 -27 -28
leaf_value=-0.025209070164036302 0.036273627760617627 0.046270469497693215 0.001297275085080337 0.00025200091296102145 0.013402035511324123 0.011332234637811781 0.023263368919930041 0.021228021254102072 0.012863178171581871 -0.019335085759624185 0.016506604237846383 0.0030558297889837936 0.016114705009385943 -0.0050731839146412909 -0.021411940838034091 0.00041352227988948186 -0.007026391896111559 0.042308876737952236 -0.039109513312578205 0.0034786480028803149 -0.010182825598348525 -0.039318008543480013 0.02886734622321567 -0.0046145698806385003 0.018810609863706036 -0.025068111277439378 -0.020975542563447282
leaf_weight=38 23 38 143 37 31 20 34 31 46 68 115 311 32 558 37 82 56 20 20 90 289 21 49 49 74 22 58
leaf_count=38 23 38 143 37 31 20 34 31 46 68 115 311 32 558 37 82 56 20 20 90 289 21 49 49 74 22 58
internal_value=-1.38438e-11 0.0110482 -0.00604576 -0.00253108 -0.000391504 0.00601716 0.00897646 0.0199264 0.0283044 -0.0169138 0.00807663 0.0050473 0.0134855 -0.0041008 -0.012014 -0.00945446 -0.00732992 0.0261894 -0.0183971 0.00802601 -0.00784078 -0.0240502 0.021118 -0.0118413 0.0229513 -0.0121151 -0.0256253
internal_weight=2392 846 1546 973 847 540 442 306 133 126 258 345 173 589 573 409 98 52 164 121 371 89 95 86 97 78 78
internal_count=2392 846 1546 973 847 540 442 306 133 126 258 345 173 589 573 409 98 52 164 121 371 89 95 86 97 78 78
is_linear=0
shrinkage=0.1


Tree=14
num_leaves=23
num_cat=0
split_feature=66 66 62 0 15 62 66 15 15 62 66 15 66 15 15 66 66 15 15 63 66 15
split_gain=13.2767 4.33776 2.67254 1.96244 3.93089 2.07563 2.09135 1.78189 1.69858 1.6599 1.7431 1.78269 1.07263 0.977132 0.783138 0.732655 0.679617 0.637656 0.594514 0.49725 0.336744 0.2378
threshold=1.159027777777778 0.80668105731639972 1.0019833333333337 2013.5000000000002 2.1116250000000005 1.0503333333333333 1.6146527777777779 0.80000244834686096 0.42216666666666663 0.90995833333333354 0.51854166666666679 0.47591666666666671 0.95186779066179605 1.2115833333333337 1.1432916666666668 0.91249380952469994 1.734791666666667 0.26133333333333336 0.77679166666666666 1.54925 0.63912500000000005 1.4179916666666668
decision_type=2 2 2 2 2 2 2 2 2 2 2 2 2 2 2 2 2 2 2 2 2 2
left_child=1 9 7 4 5 14 -7 15 -4 10 17 -12 -9 -10 -2 -3 19 -1 20 21 -11 -5
right_child=3 2 8 16 -6 6 -8 12 13 18 11 -13 -14 -15 -16 -17 -18 -19 -20 -21 -22 -23
leaf_value=-0.0070013534494111664 0.044411705210804946 0.011568328527393805 0.021888800612650812 0.021069549818428748 -0.02609181406774691 0.0053434880643137327 0.028328039802293831 -0.0018789120778958633 -0.0061354836025813439 -0.02816455338150263 0.0091641310378069718 -0.0066469857308252113 0.008020326559322867 -0.023913375091339863 0.021412536067267261 0.029921876613436073 0.038966062727073834 -0.018456348090420488 -0.03573903001490094 0.034974952824413777 -0.013241904816259781 0.010748486412745534
leaf_weight=71 20 87 20 69 28 251 47 262 265 20 82 547 188 35 57 29 24 154 21 20 62 33
leaf_count=71 20 87 20 69 28 251 47 262 265 20 82 547 188 35 57 29 24 154 21 20 62 33
internal_value=2.83358e-12 -0.00406619 0.000975881 0.0136503 0.0100516 0.0127504 0.00896857 0.00510552 -0.00632842 -0.0087342 -0.00728784 -0.00458576 0.00225677 -0.00820957 0.0273863 0.0161567 0.0235834 -0.0148417 -0.0207263 0.0205574 -0.0168816 0.0177304
internal_weight=2392 1843 886 549 403 375 298 566 320 957 854 629 450 300 77 116 146 225 103 122 82 102
internal_count=2392 1843 886 549 403 375 298 566 320 957 854 629 450 300 77 116 146 225 103 122 82 102
is_linear=0
shrinkage=0.1


Tree=15
num_leaves=21
num_cat=0
split_feature=66 66 15 62 62 66 15 62 62 15 15 66 15 62 5 15 62 62 15 66
split_gain=10.9269 3.49634 2.24998 2.01754 1.92474 2.03832 1.58045 1.69533 1.56135 1.5119 1.21952 1.08329 1.10647 1.06473 0.772923 0.659566 0.733507 0.650244 0.350491 0.332809
threshold=0.92022222222222239 1.2624166666666667 1.3379166666666671 0.84303238095371669 1.2912500000000002 0.57722222222222241 0.31429166666666669 0.38033333333333336 1.209916666666667 0.64495833333333341 1.477166666666667 1.8065138888888892 1.2078333333333335 0.66491666666666671 3.7363500000000003 1.0000000180025095e-35 0.65875000000000006 0.58725000000000016 1.5420833333333335 1.3124722222222227
decision_type=2 2 2 2 2 2 2 2 2 2 2 2 2 2 2 2 2 2 2 2
left_child=4 2 3 17 5 15 -7 -8 10 -5 19 12 -10 -4 -12 -1 -17 -2 -15 -3
right_child=1 8 13 9 -6 6 7 -9 11 -11 14 -13 -14 18 -16 16 -18 -19 -20 -21
leaf_value=0.0041165586984293024 0.033148848362590959 0.025471932915124024 0.0072733211219310756 0.020715398991177247 -0.036029777363208788 0.023183048224415293 0.011819749572168803 -0.0050124633228425287 0.019604612366547661 0.0010277598205790301 0.002913840905088803 0.028254608239231239 0.0040261651300401852 -0.011866869839072668 0.024140112102031708 -0.011464719461839065 -0.024478064306994091 0.014070193751249464 -0.02652162065108617 0.041167966340269369
leaf_weight=22 23 22 25 43 21 22 64 920 63 420 29 31 165 51 42 237 53 80 24 35
leaf_count=22 23 22 25 43 21 22 64 920 63 420 29 31 165 51 42 237 53 80 24 35
internal_value=3.52239e-12 0.00762157 0.00322908 0.00567219 -0.00599366 -0.00551509 -0.00332503 -0.00391769 0.0151807 0.0028562 0.024216 0.0107154 0.00833074 -0.010599 0.0154702 -0.0125766 -0.013843 0.0183305 -0.0165564 0.0351098
internal_weight=2392 1053 666 566 1339 1318 1006 984 387 463 128 259 228 100 71 312 290 103 75 57
internal_count=2392 1053 666 566 1339 1318 1006 984 387 463 128 259 228 100 71 312 290 103 75 57
is_linear=0
shrinkage=0.1


Tree=16
num_leaves=24
num_cat=0
split_feature=66 66 15 62 66 15 62 66 62 66 62 15 15 15 62 15 62 0 0 62 15 15 66
split_gain=9.17828 2.55683 2.20661 2.40898 1.70305 1.60754 1.3664 1.32883 1.19518 1.1676 1.15985 1.35152 1.15369 1.15027 0.998653 0.963934 0.934262 0.841396 1.4333 0.666337 0.615147 0.556466 0.492311
threshold=1.0959166666666669 0.77018055555555553 1.2115833333333337 0.78975000000000006 1.5293333333333334 1.2502916666666668 1.8880416666666668 1.2021805555555558 0.95254166666666695 0.44106944444444446 0.66979166666666679 1.9046666666666667 1.580125 0.56761544016472942 1.6568750000000001 0.78962500000000013 1.3076250000000003 2013.5000000000002 2008.5000000000002 0.6784583333333335 0.55370833333333336 0.52904166666666674 0.97303289146733529
decision_type=2 2 2 2 2 2 2 2 2 2 2 2 2 2 2 2 2 2 2 2 2 2 2
left_child=1 8 3 15 5 6 7 -2 9 21 -7 -12 14 -11 -6 -3 -5 18 -14 -4 -10 -1 -21
right_child=4 2 19 16 12 10 -8 -9 20 13 11 -13 17 -15 -16 -17 -18 -19 -20 22 -22 -23 -24
leaf_value=-0.011896358199906771 0.007844678142677709 0.020948900793640257 -0.0033388685021135539 -0.00078074803070683014 0.048816944942587898 0.023365003751082858 -0.010096160167207321 0.022556138021567584 -0.012053331449627877 0.00036122702390745381 0.0017551204848186626 -0.025502886804752052 0.022692512534558774 -0.0084344258203789668 0.019236368015408518 0.006292526593681666 -0.015631024615393712 0.025186688815684696 -0.0082880907633807507 -0.033353916481137273 -0.03446694662173589 -0.027249330642723269 -0.014431858619421043
leaf_weight=99 128 60 36 536 21 22 24 118 25 237 201 20 28 399 25 178 46 38 32 20 24 31 44
leaf_count=99 128 60 36 536 21 22 24 118 25 237 201 20 28 399 25 178 46 38 32 20 24 31 44
internal_value=-4.42398e-12 -0.00381183 -0.000198678 0.00151158 0.0100662 0.00736879 0.0126794 0.0149014 -0.00789047 -0.00692192 0.00146811 -0.000711668 0.0196759 -0.0051568 0.0327405 0.00998741 -0.00195448 0.0135435 0.00616952 -0.0142228 -0.0230314 -0.0155575 -0.020345
internal_weight=2392 1735 920 820 657 513 270 246 815 766 243 221 144 636 46 238 582 98 60 100 49 130 64
internal_count=2392 1735 920 820 657 513 270 246 815 766 243 221 144 636 46 238 582 98 60 100 49 130 64
is_linear=0
shrinkage=0.1


Tree=17
num_leaves=22
num_cat=0
split_feature=66 66 15 62 15 62 66 15 66 66 62 62 15 66 15 66 66 66 15 8 66
split_gain=7.65004 2.56578 1.97166 1.77071 1.52617 1.57724 1.81555 1.67593 1.25362 1.06664 0.972535 0.957919 0.88018 0.847581 0.829669 0.758951 0.702778 0.61236 0.603536 0.355854 0.219779
threshold=0.89348611111111109 1.4014583333333335 1.2502916666666668 0.88754166666666678 -0.096666666666666637 0.96183333333333343 0.67629166666666662 0.73650000000000004 1.1206386540935032 1.0242247474747479 0.66491666666666671 1.4020000000000004 0.89900305124666691 1.068402777777778 1.6960833333333338 0.4013194444444444 1.5137083333333337 1.846513888888889 1.7362083333333336 -905.53464999999994 0.73106944444444455
decision_type=2 2 2 2 2 2 2 2 2 2 2 2 2 2 2 2 2 2 2 2 2
left_child=4 2 3 13 -1 6 15 -8 -5 -4 -11 14 20 -2 16 -6 -3 18 -13 -16 -7
right_child=1 11 9 8 5 12 7 -9 -10 10 -12 17 -14 -15 19 -17 -18 -19 -20 -21 -22
leaf_value=0.02199194870889187 0.01169671754736834 0.02202496218362025 -0.023665908023715019 -0.00046933822185142192 -0.017448598892968018 -0.022193897776305677 0.0055744846142238109 -0.0051687768558150386 0.010073572872550524 0.013688278526944273 -0.0046754310911178197 0.01053585096144642 -0.035327252969145774 0.029549171075676429 0.020291420029333006 -0.0072658247769363613 0.045164751013120015 0.025284655392169952 -0.0073762986343353992 0.0025489950692281129 -0.010691025068779114
leaf_weight=20 137 35 25 314 90 20 239 370 176 34 190 87 20 33 26 392 21 21 24 20 98
leaf_count=20 137 35 25 314 90 20 239 370 176 34 190 87 20 33 26 392 21 21 24 20 98
internal_value=4.45744e-12 0.00591166 0.00350778 0.00636841 -0.00540995 -0.00585587 -0.00458178 -0.00095262 0.0033175 -0.00407461 -0.00188808 0.0152498 -0.0159286 0.0151622 0.0225283 -0.00916717 0.0307024 0.0096255 0.00666295 0.0125773 -0.0126407
internal_weight=2392 1143 909 660 1249 1229 1091 609 490 249 224 234 138 170 102 482 56 132 111 46 118
internal_count=2392 1143 909 660 1249 1229 1091 609 490 249 224 234 138 170 102 482 56 132 111 46 118
is_linear=0
shrinkage=0.1


Tree=18
num_leaves=28
num_cat=0
split_feature=66 66 15 62 15 15 66 62 15 15 62 66 62 62 66 62 66 15 66 65 66 15 62 15 66 62 66
split_gain=6.27337 2.31284 2.06652 2.22009 1.46196 1.29006 1.29114 1.27396 1.62425 1.21042 1.27123 1.14331 0.852167 0.587774 0.540757 0.52285 0.489522 0.478399 0.469499 0.457904 0.425675 0.37203 0.306039 0.278278 0.266974 0.131666 0.0515373
threshold=0.87309069337179246 1.2624166666666667 0.76145833333333346 1.2055833333333335 1.5230416666666671 0.85037500000000021 0.53694444444444456 1.9137916666666668 1.1695416666666669 0.21637500000000001 0.82320833333333343 1.734791666666667 0.73425000000000018 0.44837500000000002 0.73106944444444455 1.2325833333333336 0.30281944444444447 1.0153750000000001 1.5571527777777781 1.2506666666666668 1.0444305555555558 0.26133333333333336 0.54670833333333346 0.61807472155983145 1.4325138888888891 0.41087500000000005 0.81367613792860649
decision_type=2 2 2 2 2 2 2 2 2 2 2 2 2 2 2 2 2 2 2 2 2 2 2 2 2 2 2
left_child=5 2 15 4 -4 6 13 8 24 -8 -11 -10 14 16 25 23 -1 26 -9 -17 -5 -15 -16 -2 -3 -7 -14
right_child=1 7 3 20 -6 12 9 18 11 10 -12 -13 17 21 22 19 -18 -19 -20 -21 -22 -23 -24 -25 -26 -27 -28
leaf_value=-0.013902320598414087 0.029110893133011736 0.023650424069789955 0.0044271425407476995 -0.019640164765027855 -0.014978622494354136 -0.010276099157442029 0.022818160092574546 -0.01449066476727074 0.007746547107005633 0.00076536350328247952 -0.0084936411232909587 0.026642113531360756 -0.019236469912258063 -0.0074651024996529565 0.0034383647276886873 -0.0016986374243499775 -0.0011726187843702396 -0.033076744154095651 0.0051892039642013887 0.017969856807030737 -0.0075503961018630831 -0.019925397512954936 -0.0080887299076672272 0.015529125715450696 0.037635193560272458 -0.019569204447250216 -0.012907884582396476
leaf_weight=46 22 43 513 39 42 30 20 22 238 473 216 37 22 37 42 29 88 22 27 20 115 68 51 48 20 31 31
leaf_count=46 22 43 513 39 42 30 20 22 238 473 216 37 22 37 42 29 88 22 27 20 115 68 51 48 20 31 31
internal_value=7.19216e-12 0.00504046 0.00205765 1.0945e-05 0.0029586 -0.00520319 -0.00357603 0.0114223 0.0136068 -0.00143335 -0.00213731 0.0102889 -0.0119392 -0.00993236 -0.00768209 0.0142519 -0.00554252 -0.0206805 -0.00364666 0.00632932 -0.0106121 -0.0155346 -0.00288295 0.0197977 0.02809 -0.0149988 -0.0155348
internal_weight=2392 1215 828 709 555 1177 948 387 338 709 689 275 229 239 154 119 134 75 49 49 154 105 93 70 63 61 53
internal_count=2392 1215 828 709 555 1177 948 387 338 709 689 275 229 239 154 119 134 75 49 49 154 105 93 70 63 61 53
is_linear=0
shrinkage=0.1


Tree=19
num_leaves=25
num_cat=0
split_feature=66 15 66 62 62 66 15 62 62 62 15 66 15 15 66 63 62 15 62 62 15 65 66 15
split_gain=5.32856 1.54706 1.91632 2.09146 1.27304 1.28147 1.34571 0.984677 0.906328 0.838436 0.739457 0.688951 0.682738 0.659144 0.753019 0.648892 0.607746 0.512501 0.500483 0.434518 0.395208 0.211119 0.20996 0.187672
threshold=1.0070126262626264 1.0412083333333337 0.74065277777777794 0.72525000000000006 0.85337500000000011 1.572888888888889 1.1335833333333334 1.5590416666666671 0.65875000000000006 1.0174166666666669 2.1116250000000005 0.23112500000000005 0.56987511090167209 1.1695416666666669 1.2059027777777782 1.6774583333333335 0.45783333333333337 0.52904166666666674 0.54670833333333346 1.8565416666666668 1.259916666666667 1.2131250000000005 0.81646212492928194 1.3944583333333338
decision_type=2 2 2 2 2 2 2 2 2 2 2 2 2 2 2 2 2 2 2 2 2 2 2 2
left_child=1 2 8 16 13 6 15 -8 11 18 19 -1 -5 -2 23 -6 -4 -10 22 -7 -20 -16 -3 -15
right_child=4 9 3 12 5 10 7 -9 17 -11 -12 -13 -14 14 21 -17 -18 -19 20 -21 -22 -23 -24 -25
leaf_value=-0.01871025250958545 0.028076200513169169 -0.0092875298378723003 0.027315154951065779 0.0077005131501760903 0.0066498495594759554 0.024102531529538201 0.00081593310612203956 -0.014971001768160776 -0.006118406560656469 -0.031954326741397386 -0.00081927889647583161 -0.0025072874692332724 -0.003165246409467996 0.010683577293953436 0.014530026176944376 0.024913895050329822 0.0087501021859942366 -0.015432223874729041 -0.010820063347288763 0.0090670663156899919 -0.02643599309736774 0.029059960283339029 0.0040445427168850547 -0.0013930300153010796
leaf_weight=28 32 21 20 66 264 57 280 46 109 20 24 418 467 22 20 21 149 129 71 29 21 20 27 31
leaf_count=28 32 21 20 66 264 57 280 46 109 20 24 418 467 22 20 21 149 129 71 29 21 20 27 31
internal_value=1.75066e-11 -0.00349144 -0.00241664 0.00125375 0.00638034 0.00476515 0.00297635 -0.00141167 -0.00618362 -0.0128019 0.0147012 -0.00352451 -0.00181977 0.0156967 0.0114371 0.00799562 0.0109471 -0.0111667 -0.0100658 0.0190324 -0.0143846 0.021795 -0.00178824 0.0036199
internal_weight=2392 1546 1386 702 846 721 611 326 684 160 110 446 533 125 93 285 169 238 140 86 92 40 48 53
internal_count=2392 1546 1386 702 846 721 611 326 684 160 110 446 533 125 93 285 169 238 140 86 92 40 48 53
is_linear=0
shrinkage=0.1


Tree=20
num_leaves=17
num_cat=0
split_feature=66 62 66 15 15 62 62 66 15 66 15 62 66 62 62 15
split_gain=4.47908 1.71015 1.96912 1.49417 1.23376 1.649 1.22293 0.826316 0.789418 0.759204 0.739146 0.56342 0.550182 0.423367 0.355662 0.306397
threshold=1.2021805555555558 1.4881666666666671 0.80668105731639972 0.76145833333333346 2.2902083333333336 1.209916666666667 0.64895833333333341 1.676236111111111 0.8656250000000002 0.51854166666666679 1.4287916666666669 0.80812500000000009 1.5293333333333334 1.8565416666666668 0.58887500000000015 1.2078333333333335
decision_type=2 2 2 2 2 2 2 2 2 2 2 2 2 2 2 2
left_child=1 2 8 11 5 12 -5 10 9 -1 -7 -4 15 -9 -10 -2
right_child=4 -3 3 6 -6 7 -8 13 14 -11 -12 -13 -14 -15 -16 -17
leaf_value=-0.008773148875496432 0.023135731290829811 -0.022885742210424866 0.019784650818577835 0.0092751815402880317 -0.010960917093325407 0.0070956104895009142 -0.0021563643674908147 0.025510829743663116 -0.0073738093478727691 -0.0018911027964277065 -0.0045801101020504264 0.0066109028241680152 0.031361605295980415 0.0067276943829797575 -0.017625771644601568 0.01239103375013325
leaf_weight=219 38 39 42 110 30 164 627 28 76 598 81 143 27 21 61 88
leaf_count=219 38 39 42 110 30 164 627 28 76 598 81 143 27 21 61 88
internal_value=-1.98912e-11 -0.00215968 -0.0017288 0.00156675 0.0086704 0.00998794 -0.000450163 0.00560638 -0.00491382 -0.00373586 0.00323547 0.0096017 0.0184074 0.0174609 -0.0119386 0.0156315
internal_weight=2392 1915 1876 922 477 447 737 294 954 817 245 185 153 49 137 126
internal_count=2392 1915 1876 922 477 447 737 294 954 817 245 185 153 49 137 126
is_linear=0
shrinkage=0.1


Tree=21
num_leaves=20
num_cat=0
split_feature=66 15 62 66 15 0 15 66 62 62 15 66 9 66 15 15 65 66 8
split_gain=3.7742 1.28243 1.43268 1.27988 1.29606 1.09703 2.18588 1.24256 1.63684 0.6646 0.529481 0.455401 0.409816 0.188348 0.317514 0.146388 0.110714 0.0999161 0.0684136
threshold=0.95638888888888896 -0.096666666666666637 1.0892500000000001 0.66913888888888906 0.76145833333333346 2013.5000000000002 2.1116250000000005 1.6146527777777779 1.1634583333333335 0.6784583333333335 0.81698854464077619 1.2421250000000004 44.528000000000006 1.734791666666667 1.2078333333333335 1.0710000000000004 1.2424583333333337 0.86041666666666672 -1.0000000180025095e-35
decision_type=2 2 2 2 2 2 2 2 2 2 2 2 2 2 2 2 2 2 2
left_child=1 -1 3 9 -5 6 7 8 -2 -3 17 15 -9 14 -13 18 -17 -4 -7
right_child=5 2 10 4 -6 11 -8 12 -10 -11 -12 13 -14 -15 -16 16 -18 -19 -20
leaf_value=0.021295498985619773 0.0080312174734389116 -0.0048590477753734582 -0.014599660563875329 0.0043883620070971066 -0.0035870808132874251 0.011817422607740345 -0.023999094860307102 0.028708478094389041 -0.0021489062206241196 -0.013620289485276627 -0.028075504962068339 0.021399718444914589 0.010414125964045525 0.022976513796796404 0.0091004377245329903 0.0064025694304811103 -0.0030771803174337205 -0.0063106994135663482 0.0056547108038719146
leaf_weight=21 310 360 33 333 525 43 29 24 322 114 26 31 25 24 65 28 22 26 31
leaf_count=21 310 360 33 333 525 43 29 24 322 114 26 31 25 24 65 28 22 26 31
internal_value=5.23857e-12 -0.00323539 -0.00359894 -0.00279569 -0.000491717 0.00487682 0.00288889 0.0040339 0.00284451 -0.00696618 -0.0161862 0.0106614 0.0193746 0.015053 0.0130721 0.00641145 0.00223148 -0.0109469 0.00923575
internal_weight=2392 1438 1417 1332 858 954 710 681 632 474 85 244 49 120 96 124 50 59 74
internal_count=2392 1438 1417 1332 858 954 710 681 632 474 85 244 49 120 96 124 50 59 74
is_linear=0
shrinkage=0.1


Tree=22
num_leaves=18
num_cat=0
split_feature=66 62 66 15 62 62 15 62 66 15 66 1 62 62 66 65 66
split_gain=3.18748 1.29155 1.18122 1.37426 1.55774 0.943872 0.828391 0.870914 1.10245 0.712616 0.541775 0.531856 0.469039 0.415705 0.409966 0.327307 0.142999
threshold=1.0959166666666669 1.3839166666666667 0.74065277777777794 1.1095416666666669 0.61866666666666681 0.86370833333333341 2.2902083333333336 1.9137916666666668 1.734791666666667 0.62991287878787894 0.23112500000000005 2.8679500000000004 0.38033333333333336 0.6784583333333335 1.5571527777777781 1.4455833333333337 1.2502083333333334
decision_type=2 2 2 2 2 2 2 2 2 2 2 2 2 2 2 2 2
left_child=1 2 9 4 -4 15 7 8 -7 10 -1 -3 -5 -11 -9 16 -2
right_child=5 11 3 12 -6 6 -8 14 -10 13 -12 -13 -14 -15 -16 -17 -18
leaf_value=-0.016096610880669215 0.0066634126486650735 -0.029666006152072679 0.015090237636257983 0.0061240801499003461 0.00064175798616300213 0.0054911754121391206 -0.01366728328090782 -0.015228422425155128 0.026638961182190824 -0.0063791713851366512 -0.0014609772365365642 -0.0076545051121640773 -0.009859590726419773 -0.014878281412600745 0.0025826787847715122 0.026497095467692074 0.016647723883943401
leaf_weight=27 26 23 83 21 739 475 24 28 26 193 400 21 146 82 24 22 32
leaf_count=27 26 23 83 21 739 475 24 28 26 193 400 21 146 82 24 22 32
internal_value=-3.59691e-12 -0.00224634 -0.00180624 0.00042048 0.00210067 0.00593213 0.00452079 0.00531014 0.00658867 -0.0049433 -0.00238642 -0.0191605 -0.00784967 -0.00891345 -0.00700791 0.0161114 0.012172
internal_weight=2392 1735 1691 989 822 657 577 553 501 702 427 44 167 275 52 80 58
internal_count=2392 1735 1691 989 822 657 577 553 501 702 427 44 167 275 52 80 58
is_linear=0
shrinkage=0.1


Tree=23
num_leaves=23
num_cat=0
split_feature=66 15 66 62 15 62 15 66 62 62 62 66 15 65 62 15 66 65 15 62 15 66
split_gain=2.74852 1.30008 1.39432 1.07468 0.971602 0.966715 0.947371 0.934371 0.880436 0.837349 0.600737 0.719299 0.552644 0.450438 0.447513 0.427375 0.390061 0.383965 0.296824 0.16212 0.161025 0.101615
threshold=0.87309069337179246 0.89729166666666671 1.2624166666666667 1.2426666666666668 1.0000000180025095e-35 0.90301841030671581 1.3475833333333336 0.44106944444444446 0.25212499999999999 1.8565416666666668 1.024416666666667 1.0242247474747479 2.2902083333333336 1.1944583333333336 0.44837500000000002 0.92825000000000013 0.97599999999999987 1.0428750000000002 1.0860833333333335 0.71312500000000012 0.69325000000000003 0.80091666666666683
decision_type=2 2 2 2 2 2 2 2 2 2 2 2 2 2 2 2 2 2 2 2 2 2
left_child=4 10 3 6 -1 7 -3 14 -9 12 16 20 -4 -13 -6 21 19 -11 -5 -2 -12 -7
right_child=1 2 9 18 5 15 -8 8 -10 17 11 13 -14 -15 -16 -17 -18 -19 -20 -21 -22 -23
leaf_value=0.014961001316883736 0.01833023215559396 0.002809783361191605 0.0095091508553926188 -0.0054454973029091245 -0.007448082805487765 -0.011265223126771839 -0.0084143072309745288 0.011747210835815071 -0.0023272398807459072 0.0035792585718445479 0.0045310181942768398 0.0031709156146174987 -0.0073022519703954463 0.017678236030042174 -0.021698987279087308 -0.024566005244851113 0.023152158305876788 -0.015366037234501995 -0.015937674401972728 0.0084719177860213251 -0.0052982828342355787 -0.0060260668325309574
leaf_weight=28 22 376 284 56 83 86 94 47 818 20 25 38 21 49 30 20 36 23 52 69 50 65
leaf_count=28 22 376 284 56 83 86 94 47 818 20 25 38 21 49 30 20 36 23 52 69 50 65
internal_value=5.44906e-12 0.00333633 0.0015089 -0.00150203 -0.00344404 -0.00389256 0.000564965 -0.00267968 -0.0015625 0.00650982 0.00919168 0.00515487 0.00835164 0.0113417 -0.0112315 -0.0108294 0.014341 -0.00655427 -0.0104973 0.0108552 -0.00202185 -0.00900996
internal_weight=2392 1215 926 578 1177 1149 470 978 865 348 289 162 305 87 113 171 127 43 108 91 75 151
internal_count=2392 1215 926 578 1177 1149 470 978 865 348 289 162 305 87 113 171 127 43 108 91 75 151
is_linear=0
shrinkage=0.1


Tree=24
num_leaves=23
num_cat=0
split_feature=66 15 15 66 62 66 62 15 62 62 15 62 66 62 66 66 15 62 15 66 62 66
split_gain=2.28138 1.13366 0.968402 0.963209 1.215 0.777475 1.19539 0.809664 0.684493 0.557851 0.500301 0.763319 0.481089 0.4664 0.462733 0.441242 0.426564 0.423462 0.359115 0.326358 0.32088 0.299688
threshold=1.0242247474747479 1.0082500000000001 0.89729166666666671 0.74875000000000014 0.78975000000000006 1.4831666666666667 1.6977500000000003 1.7897083333333337 0.70358333333333334 1.0289166666666667 1.580125 1.5345416666666669 0.4101805555555556 1.9137916666666668 1.846513888888889 1.2059027777777782 0.58481578115934629 0.46545833333333336 1.2865833333333336 0.50016944444444456 1.2669166666666667 0.76006944444444446
decision_type=2 2 2 2 2 2 2 2 2 2 2 2 2 2 2 2 2 2 2 2 2 2
left_child=1 3 13 8 17 6 7 -4 12 18 11 -7 -1 15 -12 20 -6 -5 21 -10 -2 -3
right_child=2 9 5 4 16 10 -8 -9 19 -11 14 -13 -14 -15 -16 -17 -18 -19 -20 -21 -22 -23
leaf_value=-0.0078337819625933971 0.016364325551340025 -0.016326913898810743 0.0031028903558362061 0.021689354069530965 0.0061957321151567164 0.032397571913897992 -0.020714552194840509 -0.013561612456255862 -0.020310170717892193 -0.022909912180442079 0.0018850438270336866 0.0074938300065696241 -0.00012820031346757966 -0.00086246727034449593 0.017815247259062271 0.02569077495605715 -0.0026158819254727787 0.0063878395486248549 -0.016436686736586339 -0.00718649401665952 0.001032104647518801 -0.0031128357716812948
leaf_weight=102 39 20 490 20 64 20 24 31 21 26 88 32 394 20 23 31 388 189 34 194 21 121
leaf_count=102 39 20 490 20 64 20 24 31 21 26 88 32 394 20 23 31 388 189 34 194 21 121
internal_value=-2.34948e-12 -0.00222841 0.00427997 -0.00120087 0.00154713 0.00291843 0.00110616 0.00211134 -0.00375563 -0.00924227 0.00897784 0.0170722 -0.00171282 0.0129644 0.0051859 0.0160033 -0.00136822 0.0078521 -0.00721165 -0.00846834 0.010998 -0.00498717
internal_weight=2392 1573 819 1372 661 708 545 521 711 201 163 52 496 111 111 91 452 209 175 215 60 141
internal_count=2392 1573 819 1372 661 708 545 521 711 201 163 52 496 111 111 91 452 209 175 215 60 141
is_linear=0
shrinkage=0.1


Tree=25
num_leaves=19
num_cat=0
split_feature=66 62 66 15 15 15 62 62 62 66 15 66 65 15 66 62 15 13
split_gain=1.92609 1.08606 1.01039 1.12784 0.808826 0.744455 0.70308 0.629719 0.623218 0.587463 1.45458 0.55846 0.538209 0.411994 0.31909 0.270302 0.178591 0.0614336
threshold=1.2021805555555558 1.4020000000000004 0.84980555555555559 0.89270833333333344 1.2078333333333335 0.81698854464077619 1.9137916666666668 0.83434830722545916 0.64895833333333341 1.846513888888889 2.1116250000000005 0.57134722222222234 1.4455833333333337 1.0249583333333334 1.4432638888888893 0.49658333333333343 0.98066666666666691 963.75250000000017
decision_type=2 2 2 2 2 2 2 2 2 2 2 2 2 2 2 2 2 2
left_child=1 2 5 12 6 11 14 -6 -5 10 -9 -1 -4 17 16 -7 -2 -3
right_child=4 13 3 8 7 15 -8 9 -10 -11 -12 -13 -14 -15 -16 -17 -18 -19
leaf_value=-0.0051721879628270732 0.019117483508307487 -0.0049443041539884046 0.005998962978070007 0.0074098878429730902 0.016689799837167226 -0.0027638248016285758 -0.0021934819744072027 0.0025974153871540966 -0.0023784399395904432 0.016133284497146422 -0.023128134823249033 0.00025990668172236016 0.022741645596744048 -0.026185721475630998 0.026911689944210504 -0.0099313317448151313 0.0097217016366564421 -0.012505948556248437
leaf_weight=280 32 21 224 77 31 76 27 261 419 26 24 584 21 20 21 171 55 22
leaf_count=280 32 21 224 77 31 76 27 261 419 26 24 584 21 20 21 171 55 22
internal_value=-9.16734e-12 -0.00141623 -0.000976997 0.00188305 0.00568569 -0.00288455 0.0122398 0.00309854 -0.000858881 0.00174378 0.000431053 -0.00150049 0.00743405 -0.0143282 0.0158481 -0.00772594 0.0131776 -0.00881305
internal_weight=2392 1915 1852 741 477 1111 135 342 496 311 285 864 245 63 108 247 87 43
internal_count=2392 1915 1852 741 477 1111 135 342 496 311 285 864 245 63 108 247 87 43
is_linear=0
shrinkage=0.1


Tree=26
num_leaves=21
num_cat=0
split_feature=66 15 62 62 66 15 62 66 62 62 15 66 66 15 62 15 65 66 6 66
split_gain=1.63031 0.868403 1.0149 0.835582 0.788067 1.05356 0.766162 0.63857 0.899628 0.43626 0.416464 0.395533 0.347236 0.507868 0.514355 0.273825 0.24666 0.226052 0.161432 0.0550589
threshold=0.93268055555555573 1.0000000180025095e-35 1.0755000000000001 0.96183333333333343 1.4093472222222221 1.4287916666666669 1.6977500000000003 0.60291666666666677 0.28683333333333338 0.42291666666666672 1.3766666666666667 1.846513888888889 1.2502083333333334 1.5654583333333336 0.52316666666666678 0.80395833333333344 1.3308750000000003 1.5010416666666668 46.377224007441718 0.86041666666666672
decision_type=2 2 2 2 2 2 2 2 2 2 2 2 2 2 2 2 2 2 2 2
left_child=1 -1 7 12 5 6 -5 9 -9 -3 17 -12 13 14 -2 19 -7 -6 -14 -4
right_child=3 2 15 4 10 16 -8 8 -10 -11 11 -13 18 -15 -16 -17 -18 -19 -20 -21
leaf_value=0.01487589834964481 0.021837531030178072 -0.0014075393259355968 -0.011525228727810286 0.0018882538852645009 0.0078160233247806053 -0.018524750004950408 -0.013512686313396053 0.017453159429822809 -0.0010740812995860217 -0.0086715544789568617 0.00081734581753980747 0.014519956299605279 0.020431871708482506 -0.0074474819434376871 0.0057280413416301605 -0.021245884230094297 -0.0049555949622853883 0.019949408086748527 0.0097786366022333052 -0.0051143551334029156
leaf_weight=29 22 143 37 419 34 37 35 27 894 196 111 26 25 26 200 28 21 28 33 21
leaf_count=29 22 143 37 419 34 37 35 27 894 196 111 26 25 26 200 28 21 28 33 21
internal_value=-1.30523e-12 -0.00224525 -0.00261413 0.00303561 0.00115517 -0.000920408 0.000700957 -0.00189674 -0.000530937 -0.00560738 0.00649534 0.00341784 0.00740487 0.0057758 0.00732448 -0.0131246 -0.0136118 0.0132956 0.0143705 -0.00920405
internal_weight=2392 1375 1346 1017 711 512 454 1260 921 339 199 137 306 248 222 86 58 62 58 58
internal_count=2392 1375 1346 1017 711 512 454 1260 921 339 199 137 306 248 222 86 58 62 58 58
is_linear=0
shrinkage=0.1


Tree=27
num_leaves=25
num_cat=0
split_feature=66 15 66 62 62 62 15 62 15 15 66 62 63 62 15 65 15 15 66 62 15 62 5 62
split_gain=1.39662 1.00232 0.748676 0.982618 0.677556 0.581092 0.583809 0.449826 0.449047 0.439977 0.484945 0.482904 0.438225 0.409297 0.368015 0.365186 0.358114 0.348267 0.227881 0.226775 0.216671 0.201126 0.186731 0.101214
threshold=1.0835000000000001 1.0467083333333334 0.74875000000000014 0.71612500000000023 1.0442916666666668 0.77754166666666691 0.50358333333333349 1.2173750000000003 1.1432916666666668 0.85316666666666674 1.3558055555555557 1.475041666666667 1.0651250000000003 1.1489583333333335 1.580125 1.1944583333333336 2.1116250000000005 1.3146250000000002 0.80331944444444459 0.6784583333333335 0.55370833333333336 0.51104166666666673 816.85220000000015 0.90301841030671581
decision_type=2 2 2 2 2 2 2 2 2 2 2 2 2 2 2 2 2 2 2 2 2 2 2 2
left_child=1 2 5 21 8 6 -1 17 23 15 11 -11 14 -5 -10 -6 -12 18 -3 -19 -7 -4 -14 -2
right_child=4 7 3 13 9 20 -8 -9 12 10 16 -13 22 -15 -16 -17 -18 19 -20 -21 -22 -23 -24 -25
leaf_value=0.0027537866417095876 0.022403241209685804 -0.01141744436921947 0.015171637324296959 0.00097342514420317966 0.00063343682559207086 -0.0053099651221418763 -0.0038813235520443455 -0.021999404989182951 0.0066748100580298342 4.7701091862674519e-06 0.0058778935913289159 -0.011203532810335067 0.0080953718943584888 -0.0059808877410878446 -0.0079770012106746436 0.016744564772200057 -0.0071137711075910676 -0.0067032847432419666 -0.0020901658365550624 -0.020042381055939657 -0.013297950021796307 0.0067129848130907006 0.019556544588080475 0.013334823667537422
leaf_weight=207 20 33 37 497 24 80 369 20 40 193 183 48 44 102 30 34 24 25 127 26 59 117 21 32
leaf_count=207 20 33 37 497 24 80 369 20 40 193 183 48 44 102 30 34 24 25 127 26 59 117 21 32
internal_value=-2.85571e-12 -0.00154322 -0.000579727 0.00162087 0.00378346 -0.00289727 -0.00149683 -0.00766623 0.00892698 0.00188259 0.000821596 -0.00222759 0.00588568 -0.000210782 0.000395462 0.0100779 0.00437161 -0.00630763 -0.00401392 -0.0135036 -0.00870055 0.00874526 0.0117982 0.0168227
internal_weight=2392 1699 1468 753 693 715 576 231 187 506 448 241 135 599 70 58 207 211 160 51 139 154 65 52
internal_count=2392 1699 1468 753 693 715 576 231 187 506 448 241 135 599 70 58 207 211 160 51 139 154 65 52
is_linear=0
shrinkage=0.1


Tree=28
num_leaves=24
num_cat=0
split_feature=66 15 15 15 66 62 66 62 62 62 62 62 62 66 62 15 66 15 66 62 15 62 62
split_gain=1.1949 0.894059 0.739256 0.69065 0.708104 1.03766 0.528195 0.74053 0.53019 0.479402 0.438081 0.429421 0.399255 0.343841 0.376277 0.330055 0.306061 0.252348 0.203 0.150195 0.114353 0.0944766 0.078589
threshold=0.99937500000000001 0.95595833333333335 1.0249583333333334 -0.096666666666666637 0.53694444444444456 0.34979166666666667 1.4831666666666667 1.5590416666666671 0.56208333333333338 1.2364583333333334 0.58725000000000016 1.8565416666666668 0.60695833333333338 1.212638888888889 2.0237083333333339 1.580125 0.78711111111111121 1.2502916666666668 0.81646212492928194 0.34408333333333335 0.82945833333333352 0.94995833333333335 1.3265000000000002
decision_type=2 2 2 2 2 2 2 2 2 2 2 2 2 2 2 2 2 2 2 2 2 2 2
left_child=1 3 9 -1 12 -6 7 8 -4 20 18 15 -5 22 -15 -8 -12 -18 19 -3 -2 -22 -11
right_child=2 10 6 4 5 -7 11 -9 -10 13 16 -13 -14 14 -16 -17 17 -19 -20 -21 21 -23 -24
leaf_value=0.017369768608893669 0.018594088276418355 5.9092679293826222e-05 0.014874464176595213 -0.0037643751046336988 0.017651187165668516 -0.00037273007722078949 0.017375121122527429 -0.013818396186750188 -0.00011957131683595015 0.0040975596611609773 -0.021931652165949347 -0.0034265112856196032 -0.013939782934339376 0.016968713986376921 -0.00073903561569750315 0.0058276274564847417 -0.0069144553914825381 -0.019069392308592798 0.0037982104441676386 -0.010721563730788019 0.015251524277752447 0.0081692272777824353 -0.0032370208617066966
leaf_weight=21 26 24 25 181 33 996 34 38 416 21 20 36 49 30 20 91 117 20 39 28 31 48 48
leaf_count=21 26 24 25 181 33 996 34 38 416 21 20 36 49 30 20 91 117 20 39 28 31 48 48
internal_value=-5.2848e-12 -0.00168066 0.00297228 -0.000615927 -0.000915926 0.000205296 0.00124177 -0.000423756 0.000730431 0.0079166 -0.00717608 0.00619698 -0.00593218 0.00357103 0.00988561 0.00896855 -0.0103759 -0.0086889 -0.00165555 -0.00574588 0.0128416 0.0109484 -0.00100476
internal_weight=2392 1528 864 1280 1259 1029 640 479 441 224 248 161 230 119 50 125 157 137 91 52 105 79 69
internal_count=2392 1528 864 1280 1259 1029 640 479 441 224 248 161 230 119 50 125 157 137 91 52 105 79 69
is_linear=0
shrinkage=0.1


Tree=29
num_leaves=19
num_cat=0
split_feature=66 62 15 66 62 15 62 66 66 62 62 15 62 62 66 65 66 0
split_gain=1.02112 0.744558 0.685596 0.665555 0.93528 0.588377 0.637823 0.549361 0.445313 0.421306 0.360792 0.317497 0.312437 0.28795 0.359637 0.20581 0.100078 0.0427716
threshold=1.2021805555555558 1.3146250000000002 1.0000000180025095e-35 0.4101805555555556 0.25212499999999999 1.4287916666666669 2.0970833333333334 1.5010416666666668 1.4831666666666667 0.9747083333333334 0.42291666666666672 1.0860833333333335 1.3839166666666667 1.8565416666666668 1.8065138888888892 1.3308750000000003 0.99170833333333352 2011.5000000000002
decision_type=2 2 2 2 2 2 2 2 2 2 2 2 2 2 2 2 2 2
left_child=1 2 -1 10 -5 6 7 12 9 -7 -4 16 -2 14 -10 -11 -3 -18
right_child=5 11 3 4 -6 8 -8 -9 13 15 -12 -13 -14 -15 -16 -17 17 -19
leaf_value=0.01417793223574277 0.010677777593290168 -0.012343674303265289 -0.0055911581161510676 0.011892538563503573 -0.00082036513535404415 0.0047971618144997752 -0.0077527715936303145 0.023060655832290652 0.0033427459625072959 -0.014500257762139538 -0.020247638040349226 -0.019430304978353283 0.0027667068131809491 -0.0049710301349737817 0.017492722153015759 -0.0024542296932929236 -0.0018689318176578072 -0.0074525006905036134
leaf_weight=31 119 20 71 60 1630 29 25 25 82 37 22 24 86 28 23 23 34 23
leaf_count=31 119 20 71 60 1630 29 25 25 82 37 22 24 86 28 23 23 34 23
internal_value=3.66718e-12 -0.00103117 -0.000565903 -0.000822245 -0.000369019 0.00413983 0.00741682 0.00906569 0.00037572 -0.00509932 -0.00905828 -0.00938764 0.00735899 0.00403947 0.00644226 -0.00988261 -0.00625746 -0.00412195
internal_weight=2392 1915 1814 1783 1690 477 255 230 222 89 93 101 205 133 105 60 77 57
internal_count=2392 1915 1814 1783 1690 477 255 230 222 89 93 101 205 133 105 60 77 57
is_linear=0
shrinkage=0.1


Tree=30
num_leaves=23
num_cat=0
split_feature=66 15 15 62 66 15 62 66 15 62 62 66 62 62 65 62 15 62 62 15 66 8
split_gain=0.953022 0.727226 0.706233 0.603158 0.548386 1.03751 0.623109 0.533822 0.945975 0.491642 0.418401 0.465422 0.28669 0.284296 0.275658 0.260179 0.157075 0.127359 0.0805132 0.0667001 0.0595225 0.0513765
threshold=0.87309069337179246 0.80395833333333344 0.70012500000000022 0.39087500000000003 0.37300000000000005 0.11154166666666666 0.41087500000000005 1.2843888888888888 1.3475833333333336 1.8565416666666668 0.96183333333333343 0.72198679244406716 0.36762500000000004 1.2173750000000003 1.2506666666666668 0.21583333333333338 0.61807472155983145 0.58887500000000015 1.024416666666667 0.18299999999999997 0.98093055555555553 -329.94264999999996
decision_type=2 2 2 2 2 2 2 2 2 2 2 2 2 2 2 2 2 2 2 2 2 2
left_child=2 13 4 -3 15 -6 -7 8 -5 -9 11 17 -13 16 21 -1 -2 -4 -12 -17 -18 -15
right_child=1 3 10 7 5 6 -8 9 -10 -11 18 12 -14 14 -16 19 20 -19 -20 -21 -22 -23
leaf_value=-7.5118298883791328e-05 0.018858215058951276 0.016647661756724118 -0.0059665251998138602 0.00060694881920545863 0.021601220100031546 0.0086947275582676779 -0.0010114109684719516 0.0053977893850744047 -0.0096290264884118758 -0.0057301929301541788 -0.010002494834363461 0.009650176393777311 -0.002434668968260703 0.0024245836399495605 0.01106324745984427 -0.0082008599780411234 0.0075824570967457624 -0.01166824731117231 -0.018401595701773962 -0.01577818197413133 0.014001792049966752 -0.0043169646205989502
leaf_weight=27 23 24 101 578 24 77 469 290 107 46 25 21 301 20 29 21 52 64 21 26 20 26
leaf_count=27 23 24 101 578 24 77 469 290 107 46 25 21 301 20 29 21 52 64 21 26 20 26
internal_value=1.6888e-12 0.00196459 -0.00202801 0.000977822 0.000200454 0.00125188 0.000357403 0.000609482 -0.000991955 0.00387432 -0.00472057 -0.00385948 -0.00164653 0.00803028 0.0034278 -0.00789836 0.0116638 -0.0081781 -0.0138369 -0.0123926 0.00936561 -0.00138586
internal_weight=2392 1215 1177 1045 644 570 546 1021 685 336 533 487 322 170 75 74 95 165 46 47 72 46
internal_count=2392 1215 1177 1045 644 570 546 1021 685 336 533 487 322 170 75 74 95 165 46 47 72 46
is_linear=0
shrinkage=0.1


Tree=31
num_leaves=25
num_cat=0
split_feature=66 15 15 62 0 15 62 66 5 15 15 62 62 62 66 66 66 66 15 15 0 63 15 66
split_gain=0.780857 0.650277 0.614795 0.547682 0.54152 1.02142 0.489708 0.62431 0.468889 0.429199 0.339297 0.336632 0.253899 0.213408 0.262584 0.202092 0.149291 0.147334 0.146188 0.131521 0.117646 0.100399 0.0729586 0.0378216
threshold=0.8399861111111111 0.73025000000000018 0.81404166666666666 0.85337500000000011 2013.5000000000002 2.1116250000000005 0.87275000000000003 0.66913888888888906 5212.9379000000008 0.48245833333333338 0.62420833333333337 0.94995833333333335 0.36762500000000004 0.71312500000000012 0.71786111111111117 1.2059027777777782 0.63912500000000005 1.734791666666667 0.98720833333333335 0.45783333333333337 2011.5000000000002 0.68000000000000005 1.0082500000000001 0.79293055555555558
decision_type=2 2 2 2 2 2 2 2 2 2 2 2 2 2 2 2 2 2 2 2 2 2 2 2
left_child=2 8 6 12 5 -5 7 9 11 -1 -9 -2 -3 14 21 -14 -8 -6 23 -18 -13 -4 -16 -15
right_child=1 3 13 4 17 -7 16 10 -10 -11 -12 20 15 18 22 -17 19 -19 -20 -21 -22 -23 -24 -25
leaf_value=0.0013799353385099558 0.012988183599634049 0.014468879718333483 -0.014255936314230382 -0.00098634715418843702 0.0032628247838297902 -0.021996528282761576 -0.013368177029263715 0.0090380058501586865 0.020462565485388041 -0.0050307985388904838 0.001633688294693727 0.0056419884808938635 0.0024991674098980223 -0.010436618386302145 0.0014691210281467895 0.0098457079711887566 0.0020479315642660369 0.011793736911014371 -0.017159331031143667 -0.0062285882492687968 -0.002081570888318621 -0.0060366820616071072 -0.0041951880890976744 -0.0058492401081688206
leaf_weight=198 39 24 23 645 169 24 23 93 25 221 185 38 223 32 59 45 24 23 22 96 41 42 37 41
leaf_count=198 39 24 23 645 169 24 23 93 25 221 185 38 223 32 59 45 24 23 22 96 41 42 37 41
internal_value=-6.57559e-13 0.00166153 -0.00196473 0.000872669 -0.000396559 -0.00174008 -0.000657232 0.000436424 0.00802206 -0.00200138 0.00411067 0.00538636 0.00461515 -0.00625495 -0.00403709 0.00373273 -0.00598785 0.00428476 -0.0100136 -0.00457328 0.00163356 -0.00894503 -0.000713998 -0.00786015
internal_weight=2392 1296 1096 1153 861 669 840 697 143 419 278 118 292 256 161 268 143 192 95 120 79 65 96 73
internal_count=2392 1296 1096 1153 861 669 840 697 143 419 278 118 292 256 161 268 143 192 95 120 79 65 96 73
is_linear=0
shrinkage=0.1


Tree=32
num_leaves=24
num_cat=0
split_feature=66 62 66 15 62 62 15 15 15 62 66 63 15 15 66 66 66 15 15 66 62 63 5
split_gain=0.701612 0.65871 0.546953 0.711623 0.547551 0.471916 0.611307 0.468392 0.464374 0.350709 0.287336 0.348942 0.287659 0.245875 0.246653 0.239373 0.238793 0.34445 0.27352 0.15736 0.156569 0.14832 0.146376
threshold=1.159027777777778 1.0949583333333337 0.72198679244406716 1.3475833333333336 0.36762500000000004 1.368541666666667 2.2902083333333336 0.66575378787878792 0.38948484848484849 0.77754166666666691 1.676236111111111 1.3388750000000005 1.1165 1.0118333333333336 0.97013888888888899 0.99170833333333352 1.5137083333333337 1.6814583333333335 1.4179916666666668 0.48515277777777793 1.8880416666666668 1.3919583333333334 120.65770000000002
decision_type=2 2 2 2 2 2 2 2 2 2 2 2 2 2 2 2 2 2 2 2 2 2 2
left_child=1 2 7 4 -4 6 16 9 -3 -1 12 -12 20 14 -10 -5 18 -18 -2 -9 -7 -15 -14
right_child=5 8 3 15 -6 10 -8 19 13 -11 11 -13 22 21 -16 -17 17 -19 -20 -21 -22 -23 -24
leaf_value=0.00070347723201930317 0.0081939106748718481 0.0087391980760730802 0.015766331299502261 -0.017165050849966383 0.0015610414404761612 0.0070723325058463073 -0.0099393542957208741 -0.013770984926332648 -0.0090098362696409539 -0.0065149345268994702 0.014304800228112275 -0.0020907540994230659 -0.0017882959331169939 -0.0091463350023160573 -0.00075930217090235856 -0.0043021968721101683 0.023472923561930658 0.0060171111558492375 0.0010602320961813191 -0.0054240237926891036 -0.003341401353563098 -0.019253022409975531 -0.0086757289038764101
leaf_weight=356 156 20 28 23 878 42 23 26 71 83 27 25 72 53 74 39 20 26 82 172 22 20 54
leaf_count=356 156 20 28 23 878 42 23 26 71 83 27 25 72 53 74 39 20 26 82 172 22 20 54
internal_value=-2.0015e-12 -0.000934741 -0.000206735 0.00129077 0.00200006 0.00313794 0.005741 -0.00248239 -0.0058442 -0.000661279 -0.000164292 0.00642232 -0.00196694 -0.00718212 -0.00479922 -0.0090739 0.00701089 0.0136066 0.00573609 -0.00652009 0.00349261 -0.0119153 -0.00474005
internal_weight=2392 1843 1605 968 906 549 307 637 238 439 242 52 190 218 145 62 284 46 238 198 64 73 126
internal_count=2392 1843 1605 968 906 549 307 637 238 439 242 52 190 218 145 62 284 46 238 198 64 73 126
is_linear=0
shrinkage=0.1


Tree=33
num_leaves=12
num_cat=1
split_feature=61 15 66 62 0 15 66 62 65 0 65
split_gain=0.656376 0.78118 0.566063 0.624379 0.453756 0.699844 0.391828 0.29757 0.225612 0.158075 0.0985374
threshold=0 0.36495833333333333 0.20058333333333336 0.11212500000000002 2014.5000000000002 2.1116250000000005 0.78915277777777793 1.4585833333333336 0.89845833333333347 2011.5000000000002 1.4664583333333336
decision_type=9 2 2 2 2 2 2 2 2 2 2
left_child=1 -1 -2 -4 5 -5 -3 8 -8 -9 -6
right_child=2 6 3 4 10 -7 7 9 -10 -11 -12
leaf_value=0.021971315914845985 -0.017005758697078342 -0.0086406869641332731 0.014326726638163173 -0.00096937252032951822 0.0048884115372295782 -0.018159315444063396 0.00048945200181117765 -0.0047266584538322477 0.0080477503771405855 0.0044902663934044537 -0.0014409618664950391
leaf_weight=23 21 27 28 1798 162 24 54 49 147 30 29
leaf_count=23 21 27 28 1798 162 24 54 49 147 30 29
internal_value=-6.2565e-12 0.00407233 -0.00066824 -0.000503416 -0.000709697 -0.0011958 0.00286402 0.0039734 0.00601716 -0.00122656 0.00392741
internal_weight=2392 330 2062 2041 2013 1822 307 280 201 79 191
internal_count=2392 330 2062 2041 2013 1822 307 280 201 79 191
cat_boundaries=0 8
cat_threshold=36882 67108864 1077970432 1078018052 67699904 2149590144 96 5
is_linear=0
shrinkage=0.1


Tree=34
num_leaves=24
num_cat=0
split_feature=66 15 62 15 66 62 15 62 66 15 66 15 62 62 12 62 15 15 8 15 66 62 2
split_gain=0.579009 0.657323 0.538257 0.46455 0.447049 0.745995 0.763493 0.403886 0.340126 0.35407 0.313191 0.383785 0.38112 0.308536 0.295281 0.270371 0.23956 0.225907 0.337723 0.205902 0.187752 0.124924 0.0332229
threshold=0.98429046921935626 0.90979166666666689 1.1634583333333335 2.2902083333333336 0.51854166666666679 0.56905833333333344 0.19804166666666659 0.21583333333333338 1.5293333333333334 1.0710000000000004 1.3558055555555557 0.45783333333333337 1.6834166666666668 0.33541666666666675 259.68315000000001 0.9720416666666668 0.49579166666666669 1.4427500000000004 -19.032999999999998 1.259916666666667 0.73106944444444455 1.5097083333333334 0.25965000000000005
decision_type=2 2 2 2 2 2 2 2 2 2 2 2 2 2 2 2 2 2 2 2 2 2 2
left_child=1 4 3 8 7 13 -7 14 9 -2 11 -4 -13 -6 -1 19 -9 21 -19 20 -3 -12 -17
right_child=2 15 10 -5 5 6 -8 16 -10 -11 17 12 -14 -15 -16 22 -18 18 -20 -21 -22 -23 -24
leaf_value=-0.0027084767084681626 0.0088725183597700898 -0.0089823846991004593 0.010847261552698911 -0.010257852477952838 0.016856442153668747 0.017897148402831096 -0.00099652500643047188 -0.0042006293895748299 0.016901004869335642 0.0024130835935084766 0.011504417573186486 -0.0021227214870447957 -0.014124979010472697 0.0050203124709595516 0.012248060589825567 -0.01565947343595326 -0.012569577844503025 0.0026766380261526342 -0.010674123626813525 -0.011384398855871577 -0.001760666933915498 0.0035451293894450883 -0.010028066972418773
leaf_weight=33 129 44 20 20 26 22 769 119 24 248 33 224 30 144 22 20 48 90 24 34 198 49 22
leaf_count=33 129 44 20 20 26 22 769 119 24 248 33 224 30 144 22 20 48 90 24 34 198 49 22
internal_value=5.85183e-13 -0.0011987 0.00201936 0.00461631 -0.000113724 0.000820606 -0.000471037 -0.00415827 0.00535816 0.00462334 -0.000306847 -0.00249012 -0.00354031 0.00683054 0.00327414 -0.00523495 -0.00660608 0.00274528 -0.000134049 -0.00409749 -0.00307371 0.00674826 -0.0127097
internal_weight=2392 1501 891 421 1183 961 791 222 401 377 470 274 254 170 55 318 167 196 114 276 242 82 42
internal_count=2392 1501 891 421 1183 961 791 222 401 377 470 274 254 170 55 318 167 196 114 276 242 82 42
is_linear=0
shrinkage=0.1


Tree=35
num_leaves=13
num_cat=1
split_feature=61 15 66 62 0 15 66 62 11 65 66 63
split_gain=0.508752 0.535605 0.446428 0.602755 0.402427 0.499483 0.336444 0.22737 0.214077 0.155912 0.14945 0.125089
threshold=0 0.36495833333333333 0.23112500000000005 0.21583333333333338 2012.5000000000002 2.1116250000000005 0.78269444444444447 1.4649583333333338 336.28080000000006 1.0107083333333338 0.70440277777777782 1.5637083333333335
decision_type=9 2 2 2 2 2 2 2 2 2 2 2
left_child=1 -1 -2 8 5 -5 -3 9 -4 -8 -6 -9
right_child=2 6 3 4 10 -7 7 11 -10 -11 -12 -13
leaf_value=0.01776555521786213 -0.012700841263431357 -0.0083393411238988011 0.0035602581911478881 -0.0013463556803303856 -0.0017772627392757649 -0.015896044671535492 0.0019643488233725046 0.0016407528166151181 0.016039990327720129 0.0076520678918894792 0.0023815657102332181 -0.0070116321302824266
leaf_weight=25 30 26 27 1397 107 24 81 55 28 119 449 24
leaf_count=25 30 26 27 1397 107 24 81 55 28 119 449 24
internal_value=-1.06487e-11 0.00358525 -0.000588314 -0.000412383 -0.00069965 -0.00159209 0.00254048 0.00355437 0.00991358 0.00534854 0.00158122 -0.00098782
internal_weight=2392 330 2062 2032 1977 1421 305 279 55 200 556 79
internal_count=2392 330 2062 2032 1977 1421 305 279 55 200 556 79
cat_boundaries=0 8
cat_threshold=1073778706 67108864 1077970432 4210688 67699904 2283811968 96 5
is_linear=0
shrinkage=0.1


Tree=36
num_leaves=13
num_cat=0
split_feature=66 62 66 15 62 62 15 63 10 0 62 65
split_gain=0.482858 0.478844 0.426945 0.987712 0.559495 0.364429 0.328796 0.301962 0.260286 0.222721 0.170358 0.0877106
threshold=1.6146527777777779 1.6977500000000003 0.44106944444444446 0.11154166666666666 0.38033333333333336 0.55608333333333337 1.6387500000000002 1.6557083333333336 271.14820000000003 2009.5000000000002 1.5590416666666671 1.1944583333333336
decision_type=2 2 2 2 2 2 2 2 2 2 2 2
left_child=1 2 5 -4 -5 9 -2 11 -8 -1 -10 -3
right_child=6 7 3 4 -6 -7 8 -9 10 -11 -12 -13
leaf_value=-0.0071628550597418496 0.015791321956905826 -0.0078727312788292435 0.020912691222949198 0.0063492158398949505 -0.00035557652059635961 -0.017652253287711316 0.011845303930180229 -0.018884930671192707 0.004510443009436131 0.0019332990099854295 -0.0075551498702473262 0.0007979410293046385
leaf_weight=63 29 28 23 133 1938 21 23 20 25 47 22 20
leaf_count=63 29 28 23 133 1938 21 23 20 25 47 22 20
internal_value=4.25236e-12 -0.000295219 -4.25896e-05 0.000303883 7.50065e-05 -0.00558086 0.00683776 -0.00856142 0.00312843 -0.00327632 -0.00113728 -0.00425995
internal_weight=2392 2293 2225 2094 2071 131 99 68 70 110 47 48
internal_count=2392 2293 2225 2094 2071 131 99 68 70 110 47 48
is_linear=0
shrinkage=0.1


Tree=37
num_leaves=19
num_cat=0
split_feature=66 62 15 66 15 15 15 62 66 66 15 62 15 63 66 62 63 15
split_gain=0.461725 0.493874 0.485504 0.591993 0.434399 0.391598 0.362164 0.3584 0.294401 0.266387 0.326367 0.369818 0.231905 0.331318 0.226588 0.124632 0.098851 0.0246844
threshold=1.2021805555555558 1.0949583333333337 1.5230416666666671 0.87309069337179246 0.67916666666666681 0.85838714426621665 1.3475833333333336 2.0970833333333334 1.4831666666666667 1.846513888888889 2.2185416666666669 1.209916666666667 1.076041666666667 1.4938750000000003 0.91249380952469994 1.3839166666666667 1.4938750000000003 1.1912500000000001
decision_type=2 2 2 2 2 2 2 2 2 2 2 2 2 2 2 2 2 2
left_child=1 2 3 4 -1 -5 7 8 15 10 11 -8 13 14 -3 -2 17 -14
right_child=6 12 -4 5 -6 -7 9 -9 -10 -11 -12 -13 16 -15 -16 -17 -18 -19
leaf_value=0.00091236810570024379 0.0083427160428376137 -0.0092189067821187385 -0.012036671578023357 0.0083310693772676008 -0.003023031692189784 0.0015800341087616515 0.0057207663475042757 -0.0055592278911111258 0.018888087954255756 0.0099935100198938302 -0.011727167970578496 -0.0026995607608006579 -0.0049356909379219783 0.008433867709296149 -0.0017946668547904024 0.0027227247662063858 -0.015244945032255992 -0.0093365733027458205
leaf_weight=565 96 62 33 112 557 369 85 24 20 26 24 135 26 23 122 67 21 25
leaf_count=565 96 62 33 112 557 369 85 24 20 26 24 135 26 23 122 67 21 25
internal_value=6.09909e-12 -0.000693403 -3.02191e-05 0.000216951 -0.0010413 0.003152 0.00278379 0.00593074 0.00743762 0.000371125 -0.000654211 0.000553747 -0.00458218 -0.00288185 -0.00429631 0.00603266 -0.00947064 -0.00709299
internal_weight=2392 1915 1636 1603 1122 481 477 207 183 270 244 220 279 207 184 163 72 51
internal_count=2392 1915 1636 1603 1122 481 477 207 183 270 244 220 279 207 184 163 72 51
is_linear=0
shrinkage=0.1


Tree=38
num_leaves=24
num_cat=0
split_feature=66 15 62 66 15 15 65 62 15 63 62 66 62 66 66 15 15 62 66 15 15 65 15
split_gain=0.409983 0.620961 0.41278 0.530044 0.453434 0.411119 0.375013 0.412549 0.347197 0.301263 0.341977 0.211408 0.18879 0.302802 0.187225 0.195961 0.181991 0.130916 0.103615 0.100432 0.0964984 0.0711645 0.0544818
threshold=0.64465277777777785 0.62709572237403266 0.64895833333333341 0.98093055555555553 0.94737500000000019 0.50358333333333349 1.086541666666667 0.73025000000000018 1.0249583333333334 0.31875000000000003 0.21583333333333338 0.48515277777777793 0.25212499999999999 0.47650000000000009 0.8189940765277407 1.0082500000000001 1.6814583333333335 1.0405000000000002 0.28087500000000004 0.67916666666666681 0.3766250000000001 0.58225000000000005 0.56987511090167209
decision_type=2 2 2 2 2 2 2 2 2 2 2 2 2 2 2 2 2 2 2 2 2 2 2
left_child=5 6 14 4 -4 9 7 22 -5 18 -11 -12 21 -14 15 -3 -16 -9 -1 -15 -8 -7 -2
right_child=1 2 3 8 -6 12 20 17 -10 10 11 -13 13 19 16 -17 -18 -19 -20 -21 -22 -23 -24
leaf_value=-0.011548429860600404 0.013550208695232869 0.0030208485795618452 -0.0016597953764106894 0.0045108320253493739 -0.0085554656090837036 -0.0040508346898215156 0.017895326441661877 0.00289244648724889 -0.00029527088198358625 0.014697142317891121 -0.0032658237390274154 0.0043561509618378408 -0.017976297600113829 -0.0038048243368975819 0.0078260317092351279 -0.005195021262931589 -0.0023405231624132115 -0.0032263707007620145 -0.002753867312158282 -0.0091892938674339713 0.0091124888951087304 0.0040876771130239249 0.0068969044811092312
leaf_weight=21 32 123 480 200 119 21 22 96 605 20 69 77 23 100 109 38 21 55 37 53 29 22 20
leaf_count=21 32 123 480 200 119 21 22 96 605 20 69 77 23 100 109 38 21 55 37 53 29 22 20
internal_value=6.76665e-13 0.000624163 -6.68051e-05 -0.000777261 -0.00302972 -0.00274604 0.00523515 0.00330921 0.000898792 0.000266136 0.00243388 0.000753985 -0.00582698 -0.00727824 0.00336096 0.0010817 0.00618374 0.000663738 -0.00593811 -0.00567003 0.0129012 0.000113055 0.0109912
internal_weight=2392 1949 1695 1404 599 443 254 203 805 224 166 146 219 176 291 161 130 151 58 153 51 43 52
internal_count=2392 1949 1695 1404 599 443 254 203 805 224 166 146 219 176 291 161 130 151 58 153 51 43 52
is_linear=0
shrinkage=0.1


Tree=39
num_leaves=9
num_cat=0
split_feature=66 62 66 15 62 15 65 63
split_gain=0.367853 0.375066 0.335233 0.526417 0.436484 0.244459 0.227401 0.182642
threshold=1.6146527777777779 1.7280416666666671 0.20058333333333336 0.11154166666666666 0.17754166666666663 1.6387500000000002 0.98720833333333335 1.0651250000000003
decision_type=2 2 2 2 2 2 2 2
left_child=1 2 -1 -4 -5 -2 -7 -3
right_child=5 7 3 4 -6 6 -8 -9
leaf_value=-0.012619533726856822 0.01368849383634997 -0.0015430293386228958 0.01159008800243147 0.0085821236329918209 -0.0003625599729072594 0.0078512934179833307 -0.0036231591005719474 -0.012542163750105022
leaf_weight=21 29 26 39 56 2115 39 31 36
leaf_count=21 29 26 39 56 2115 39 31 36
internal_value=-8.69176e-12 -0.000257675 -4.44698e-05 7.50217e-05 -0.000131836 0.00596817 0.00276975 -0.00792962
internal_weight=2392 2293 2231 2210 2171 99 70 62
internal_count=2392 2293 2231 2210 2171 99 70 62
is_linear=0
shrinkage=0.1


Tree=40
num_leaves=23
num_cat=1
split_feature=61 62 66 66 15 66 15 15 66 66 15 15 66 15 66 66 62 62 0 65 9 62
split_gain=0.360478 0.289464 0.49446 0.398238 0.383968 0.307566 0.301262 0.292259 0.488432 0.289799 0.281154 0.17921 0.22216 0.166686 0.161983 0.159584 0.188462 0.0997648 0.0936126 0.0619233 0.046891 0.0307481
threshold=0 0.82320833333333343 0.66913888888888906 0.90926388888888898 0.7921294194461489 0.91605555555555573 0.50358333333333349 2.1116250000000005 1.676236111111111 0.48515277777777793 0.36495833333333333 0.81698854464077619 0.74065277777777794 0.47591666666666671 0.4013194444444444 0.97013888888888899 1.368541666666667 0.90995833333333354 2012.5000000000002 0.90093915117223289 146.91055000000003 1.024416666666667
decision_type=9 2 2 2 2 2 2 2 2 2 2 2 2 2 2 2 2 2 2 2 2 2
left_child=10 2 6 11 13 -6 9 8 -5 -2 -1 12 -3 -4 -8 17 19 20 -18 -17 -12 -13
right_child=1 3 4 7 5 -7 14 -9 -10 -11 15 21 -14 -15 -16 16 18 -19 -20 -21 -22 -23
leaf_value=0.014305920340675153 -0.0018658241558844821 -0.0074738920761493648 0.01424075761543853 -0.00050987338447945369 -0.0011837889360271272 0.0048305836621280341 -0.012752077324936786 -0.010733931726561143 0.012764245341331215 0.0064008795869393417 0.0037847347056063326 -0.007317782039221345 -0.0010531500960925815 0.0048820354803610112 -0.0035485905700931154 0.0024224796905056448 -0.001900134222215098 -0.0070010791571500407 0.0050003574479238269 0.0071859010763896201 -0.0023449374828487636 -0.01150236731953919
leaf_weight=21 122 81 21 628 286 121 21 26 29 65 26 59 161 203 214 37 66 24 28 104 24 25
leaf_count=21 122 81 21 628 286 121 21 26 29 65 26 59 161 203 214 37 66 24 28 104 24 25
internal_value=7.64341e-12 -0.000495217 0.000662185 -0.001708 0.0024343 0.000604268 -0.0019876 -0.000335461 7.60466e-05 0.00100763 0.00301791 -0.00458359 -0.00320224 0.00575942 -0.00437103 0.00234843 0.00362369 -0.00170137 0.000155331 0.00593593 0.000842492 -0.00856319
internal_weight=2392 2062 1053 1009 631 407 422 683 657 187 330 326 242 224 235 309 235 74 94 141 50 84
internal_count=2392 2062 1053 1009 631 407 422 683 657 187 330 326 242 224 235 309 235 74 94 141 50 84
cat_boundaries=0 8
cat_threshold=134250514 67108864 1346405888 4210692 591042 2149594112 224 5
is_linear=0
shrinkage=0.1


Tree=41
num_leaves=17
num_cat=1
split_feature=61 62 66 15 66 66 1 62 64 15 62 66 15 3 66 62
split_gain=0.316802 0.499361 0.351317 0.443776 0.313277 0.201311 0.187853 0.18308 0.142734 0.129238 0.110571 0.107445 0.0767383 0.0691022 0.0443076 0.0547857
threshold=0 0.38033333333333336 0.45351388888888894 0.21637500000000001 1.452763888888889 0.30281944444444447 9.9518500000000021 0.1955416666666667 10908.974259917331 0.92079166666666679 0.43912500000000004 0.61581086255434137 0.50358333333333349 60.860300000000002 0.86259722222222235 1.0610000000000002
decision_type=9 2 2 2 2 2 2 2 2 2 2 2 2 2 2 2
left_child=5 6 -3 -4 -5 -1 8 -8 13 10 12 -12 -7 -2 -11 -16
right_child=1 2 3 4 -6 9 7 -9 -10 14 11 -13 -14 -15 15 -17
leaf_value=-0.0099811104048664386 0.003351241131481815 -0.010021670564824224 0.011729216739309557 -0.00040165323863103483 0.0039240869494112495 0.0072852059694317479 0.018319151852102505 0.0060589754765307344 0.0090320395585149534 -0.0097168918100318732 -0.0054998021206406301 -0.00028375178725192592 -0.00042069015492286001 -0.0038841012018648066 -0.0011465500467098676 -0.0081081783608533443
leaf_weight=36 33 34 33 1676 186 24 21 29 30 21 61 112 28 22 26 20
leaf_count=36 33 34 33 1676 186 24 21 29 30 21 61 112 28 22 26 20
internal_value=4.84314e-12 0.000462657 5.34146e-05 0.000234181 3.04561e-05 -0.00283891 0.00634455 0.0112082 0.00348355 -0.00205559 -0.000907567 -0.00212294 0.00313588 0.000457104 -0.00591087 -0.00417334
internal_weight=2392 2064 1929 1895 1862 328 135 50 85 292 225 173 52 55 67 46
internal_count=2392 2064 1929 1895 1862 328 135 50 85 292 225 173 52 55 67 46
cat_boundaries=0 8
cat_threshold=67109121 262790 2181038465 2415927808 411041828 1107296275 270336 8
is_linear=0
shrinkage=0.1


Tree=42
num_leaves=26
num_cat=0
split_feature=66 62 15 62 66 66 15 15 66 15 62 5 62 15 15 66 15 5 66 62 62 15 62 66 15
split_gain=0.290116 0.422459 0.401769 0.300463 0.339329 0.288874 0.408352 0.288003 0.30825 0.265211 0.232148 0.180786 0.228868 0.174798 0.157972 0.207437 0.144735 0.125937 0.0896833 0.0722378 0.0484359 0.0357598 0.0351524 0.0294464 0.0245163
threshold=0.79293055555555558 0.78975000000000006 0.73025000000000018 0.9720416666666668 1.1707083333333335 1.0857222222222223 1.3146250000000002 0.80000244834686096 0.63912500000000005 1.4287916666666669 0.14562499999999998 5212.9379000000008 0.84533333333333338 1.2770833333333336 0.60670833333333352 0.59893055555555563 0.48245833333333338 8648.1413500000017 0.64465277777777785 1.1026250000000002 0.98687500000000028 0.42216666666666663 0.62413888888888891 0.71786111111111117 0.62183333333333346
decision_type=2 2 2 2 2 2 2 2 2 2 2 2 2 2 2 2 2 2 2 2 2 2 2 2 2
left_child=1 7 11 5 13 6 -4 8 10 -6 -1 12 24 -5 15 -3 -10 -7 -9 -14 23 -17 -20 -16 -2
right_child=2 14 3 4 9 17 -8 18 16 -11 -12 -13 19 -15 20 21 -18 -19 22 -21 -22 -23 -24 -25 -26
leaf_value=0.0073948844020290594 0.012544606188312175 -0.010312421109389376 0.0015667358759888705 -0.0030181740401216428 0.0029360489251323112 0.0046193615230041068 -0.0090084184042643761 -0.0082304135448985592 0.011805881710130382 -0.0022279548521895532 -0.0016695477523137364 0.012783597631809805 0.0042512959061908381 -0.011462790546593844 -0.0097246997457529835 0.0027057656644111769 0.0031584421055599679 0.013200791179842781 -0.0013100597383674689 -0.00047726959297766111 -0.012538865634373257 -0.0017268649170336385 -0.0048543457562724747 -0.0056742832763120536 0.0078876231152277734
leaf_weight=31 20 27 419 266 227 118 40 38 22 177 319 26 60 27 28 28 161 20 74 70 21 52 45 50 26
leaf_count=31 20 27 419 266 227 118 40 38 22 177 319 26 60 27 28 28 161 20 74 70 21 52 45 50 26
internal_value=2.77191e-12 -0.00142304 0.000852302 0.000204816 -0.00120544 0.0018513 0.000645154 -0.000236596 0.000872222 0.000673602 -0.000866698 0.00500006 0.00385022 -0.00379635 -0.00539705 -0.00273337 0.00419803 0.00586305 -0.00400093 0.00170515 -0.00827598 -0.000175444 -0.00265034 -0.00712828 0.0099124
internal_weight=2392 896 1496 1294 697 597 459 690 533 404 350 202 176 293 206 107 183 138 157 130 99 80 119 78 46
internal_count=2392 896 1496 1294 697 597 459 690 533 404 350 202 176 293 206 107 183 138 157 130 99 80 119 78 46
is_linear=0
shrinkage=0.1


Tree=43
num_leaves=19
num_cat=1
split_feature=61 15 66 66 66 62 62 13 15 66 62 15 63 65 3 65 62 66
split_gain=0.26326 0.250989 0.367543 0.349491 0.284939 0.452053 0.242686 0.185268 0.147685 0.153004 0.139013 0.135316 0.103171 0.0947943 0.0849749 0.0662294 0.060983 0.0505903
threshold=0 1.3475833333333336 1.5010416666666668 1.3733194444444445 0.74875000000000014 0.72525000000000006 0.77754166666666691 1449.9026000000001 0.49204166666666665 0.97013888888888899 1.368541666666667 1.7362083333333336 1.3919583333333334 1.1192083333333336 222.94345000000001 0.90093915117223289 0.65437500000000004 0.81367613792860649
decision_type=9 2 2 2 2 2 2 2 2 2 2 2 2 2 2 2 2 2
left_child=8 2 4 11 6 -6 -2 12 -1 16 15 13 -5 -3 -12 -11 -10 -18
right_child=1 3 -4 7 5 -7 -8 -9 9 10 14 -13 -14 -15 -16 -17 17 -19
leaf_value=0.0087027252289570041 -0.0008585320364660143 -0.0079798952017294915 0.013471969511592762 0.0055918436588919054 0.0048613661647667304 -0.00018377349729726611 -0.0056811546506143592 -0.0055732381969158147 0.0019564867744432581 0.0018380479207514107 -0.0022706875509286946 -0.013641560403630138 -0.0016754719289019705 -0.0021276937858201567 0.0047310267619860291 0.0068479054199997343 -0.0076042917663289708 -0.001331495418627229
